tree
version=v4
num_class=1
num_tree_per_iteration=1
label_index=0
max_feature_idx=12
objective=quantile
feature_names=lmp spread gas_price temp_f wind_speed hour month weekday lmp_6h_lag lmp_trend_6h horizon hour_sin hour_cos
feature_infos=[-11.18:83.260000000000005] [-29.609999999999999:58.840000000000003] [1.99:2.79] [48:89.900000000000006] [1.5:39.799999999999997] [0:23] none [0:6] [-11.18:83.260000000000005] [-58.280000000000001:74.060000000000002] [1:72] [-1:1] [-1:1]
tree_sizes=2760 2912 2906 2917 2901 2928 2931 2934 2904 2913 2904 2889 2859 2881 2932 2916 2856 2879 2847 2830 2895 2871 2896 2862 2930 2914 2905 2922 2869 2905 2820 2887 2918 2873 2853 2880 2897 2939 2883 2894 2914 2909 2891 2873 2894 2841 2885 2933 2864 2861 2907 2911 2949 2882 2901 2837 2839 2831 2931 2917 2908 2898 2907 2923 2899 2927 2949 2940 2967 2905 2963 2936 2930 2931 2961 2947 2924 2901 2902 2957 2917 2954 2909 2852 2915 2901 2873 2918 2947 2898 2960 2944 2938 2897 2949 2927 2983 2965 2959 2931 2973 2953 2945 2940 2884 2916 2920 2876 2937 2918 2903 2906 2910 2910 2909 2950 2857 2900 2911 2878 2923 2909 2927 2863 2911 2882 2921 2938 2927 2905 2888 2880 2898 2899 2929 2949 2909 2863 2878 2949 2933 2864 2894 2875 2896 2965 2962 2931 2872 2924 2949 2927 2900 2903 2892 2925 2853 2885 2894 2906 2916 2895 2943 2855 2848 2887 2928 2845 2911 2932 2946 2931 2940 2930 2919 2945 2940 2882 2881 2911 2924 2927 2935 2919 2923 2936 2951 2939 2906 2935 2959 2908 2969 2900 2892 2934 2830 2909 2882 2897

Tree=0
num_leaves=31
num_cat=0
split_feature=4 7 4 7 2 2 3 10 5 7 2 7 10 7 7 7 10 10 3 0 10 5 3 10 12 7 10 2 2 9
split_gain=144.475 54.2776 31.1627 31.1962 37.7316 27.7582 31.7224 25.982 17.0978 17.0406 12.2475 40.4156 27.1886 64.3895 17.8355 26.1399 15.3962 15.1363 11.8276 9.342 9.21872 16.0469 9.12307 8.55073 8.50694 8.45452 21.1076 25.8405 7.86872 7.86257
threshold=10.050000000000002 4.5000000000000009 9.9500000000000011 4.5000000000000009 2.3900000000000006 2.3900000000000006 56.600000000000009 34.500000000000007 14.500000000000002 3.5000000000000004 2.3900000000000006 2.5000000000000004 45.500000000000007 1.0000000180025095e-35 3.5000000000000004 1.0000000180025095e-35 63.500000000000007 11.500000000000002 66.600000000000009 39.925000000000004 59.500000000000007 8.5000000000000018 70.450000000000017 8.5000000000000018 0.25881904510252057 2.5000000000000004 22.500000000000004 2.3900000000000006 2.3900000000000006 43.515000000000008
decision_type=2 2 2 2 2 2 2 2 2 2 2 2 2 2 2 2 2 2 2 2 2 2 2 2 2 2 2 2 2 2
left_child=2 10 9 25 8 6 7 -3 23 28 12 20 13 -2 15 -14 -16 24 -7 -8 -12 -22 -20 -5 -13 -4 -27 -28 -1 -11
right_child=1 5 3 4 -6 18 19 -9 -10 29 11 17 14 -15 16 -17 -18 -19 22 -21 21 -23 -24 -25 -26 26 27 -29 -30 -31
leaf_value=24.174000358581544 21.384000277519227 24.145000267028809 22.57600030899048 24.163000297546386 22.638000297546387 22.463000297546387 22.377000236511229 24.875000381469725 24.875000381469725 22.722000312805175 25.201000213623047 24.481000137329101 25.39900016784668 24.163000297546386 24.820000457763673 23.909000205993653 24.875000381469725 22.572000312805176 25.314796687320449 24.163000297546386 25.337000274658202 22.658000278472901 23.880000305175781 24.820000457763673 22.104800018501532 22.426000308990478 22.938397848950444 23.708000183105469 23.604000282287597 24.219000244140624
leaf_weight=1368 2160 635 17280 248 624 505 8588 80 72 5248 6372 528 1296 7605 599 3348 72 3537 1397 338 364 1040 4178 304 198 5302 7250 4800 3960 173
leaf_count=1368 2160 635 17280 248 624 505 8588 80 72 5248 6372 528 1296 7605 599 3348 72 3537 1397 338 364 1040 4178 304 198 5302 7250 4800 3960 173
internal_value=23.4298 23.434 23.426 23.4246 23.4401 23.4294 23.426 23.4463 23.4575 23.4307 23.4367 23.4344 23.4386 23.4355 23.4444 23.4422 23.4596 23.4265 23.4347 23.4244 23.4387 23.4313 23.436 23.4515 23.4397 23.424 23.4256 23.4279 23.4347 23.4268
internal_weight=89469 42840 46629 35880 1248 15721 9641 715 624 10749 27119 12039 15080 9765 5315 4644 671 4263 6080 8926 7776 1404 5575 552 726 34632 17352 12050 5328 5421
internal_count=89469 42840 46629 35880 1248 15721 9641 715 624 10749 27119 12039 15080 9765 5315 4644 671 4263 6080 8926 7776 1404 5575 552 726 34632 17352 12050 5328 5421
is_linear=0
shrinkage=1


Tree=1
num_leaves=31
num_cat=0
split_feature=4 7 3 2 7 8 3 10 7 2 7 7 10 2 3 2 7 10 10 7 12 7 7 3 10 10 11 10 10 9
split_gain=104.956 31.5081 28.5343 21.885 22.1739 35.5875 19.3102 17.4283 16.6281 32.0145 14.4302 11.165 27.505 13.8852 11.1474 10.2978 31.6538 21.7016 19.3326 54.1836 14.7288 13.2901 15.8455 9.5121 8.80744 10.1681 9.73264 8.78305 7.35719 7.1776
threshold=10.050000000000002 4.5000000000000009 74.450000000000017 2.3900000000000006 5.5000000000000009 -2.1549999999999998 60.250000000000007 25.500000000000004 5.5000000000000009 2.3900000000000006 3.5000000000000004 2.5000000000000004 22.500000000000004 2.3900000000000006 66.600000000000009 2.3900000000000006 1.5000000000000002 11.500000000000002 45.500000000000007 1.0000000180025095e-35 0.25881904510252057 1.0000000180025095e-35 3.5000000000000004 66.850000000000009 10.500000000000002 19.500000000000004 0.12940952255126045 59.500000000000007 35.500000000000007 43.515000000000008
decision_type=2 2 2 2 2 2 2 2 2 2 2 2 2 2 2 2 2 2 2 2 2 2 2 2 2 2 2 2 2 2
left_child=2 15 10 4 5 7 -7 -3 11 -10 24 -4 -13 -14 -5 18 -17 20 19 -2 -18 -20 -23 29 -1 26 -26 -27 -19 -12
right_child=1 3 8 14 -6 6 -8 -9 9 -11 23 12 13 -15 -16 16 17 28 21 -21 -22 22 -24 -25 25 27 -28 -29 -30 -31
leaf_value=-0.86739999771118159 -1.8414000248908999 0.82029996871948263 -0.74660006523132338 -0.87030000686645514 -1.9607000255584717 0.66149999618530275 -0.43770002365112293 1.5503000831604006 1.2510001373291015 -0.77879999160766611 -1.1792000007629395 -0.92120000839233396 -0.42983984593020069 0.24020004272460938 0.69399993896484391 1.5938999176025392 1.7778998184204102 -0.045199947357177805 1.7720998764038087 0.65969999313354499 -0.87588009073284179 0.43109991073608395 1.2510001373291015 0.16979997634887703 -0.72539999008178713 0.12859991073608407 2.0395999717712403 0.84360002517700183 -0.80320003509521498 0.83910003662109389
leaf_weight=660 2160 375 17712 505 3933 804 4458 71 552 552 2292 5522 7253 5049 5575 5544 770 2328 1296 7605 297 3348 671 2869 135 2640 459 858 3100 76
leaf_count=660 2160 375 17712 505 3933 804 4458 71 552 552 2292 5522 7253 5049 5575 5544 770 2328 1296 7605 297 3348 671 2869 135 2640 459 858 3100 76
internal_value=-0.000482739 0.00309057 -0.00376568 -0.000471346 -0.00343429 0.000546599 -0.00175219 0.0276682 -0.00505732 0.00702898 0.000972067 -0.0054328 -0.00366585 -0.00103398 0.00422697 0.00515542 0.0029745 -0.0017629 0.00689655 0.00425499 0.0112746 0.0117498 0.00891017 -0.00264847 0.00496212 0.0066911 0.0187879 0.00463693 -0.00432572 -0.00733953
internal_weight=89469 42840 46629 15721 9641 5708 5262 446 36640 1104 9989 35536 17824 12302 6080 27119 12039 6495 15080 9765 1067 5315 4019 5237 4752 4092 594 3498 5428 2368
internal_count=89469 42840 46629 15721 9641 5708 5262 446 36640 1104 9989 35536 17824 12302 6080 27119 12039 6495 15080 9765 1067 5315 4019 5237 4752 4092 594 3498 5428 2368
is_linear=0
shrinkage=0.1


Tree=2
num_leaves=31
num_cat=0
split_feature=4 7 4 2 7 8 3 7 2 10 7 3 7 10 2 11 3 10 2 10 3 10 8 10 0 10 2 7 7 10
split_gain=86.5793 25.7317 25.5198 20.522 22.015 33.3617 18.5416 16.5125 23.4303 14.5851 13.1006 10.7389 9.86839 27.7197 16.367 8.44572 7.60932 7.78514 7.40139 14.2125 7.35861 7.29002 10.9406 6.47861 7.58292 7.97786 6.31077 34.7468 33.8278 27.4086
threshold=10.050000000000002 4.5000000000000009 9.9500000000000011 2.3900000000000006 5.5000000000000009 -2.1549999999999998 60.250000000000007 4.5000000000000009 2.3900000000000006 27.500000000000004 2.5000000000000004 66.600000000000009 2.5000000000000004 22.500000000000004 2.3900000000000006 -0.60355339059327362 70.450000000000017 26.500000000000004 2.3900000000000006 30.500000000000004 64.750000000000014 7.5000000000000009 8.6450000000000014 59.500000000000007 37.125000000000007 67.500000000000014 2.3900000000000006 2.5000000000000004 1.0000000180025095e-35 45.500000000000007
decision_type=2 2 2 2 2 2 2 2 2 2 2 2 2 2 2 2 2 2 2 2 2 2 2 2 2 2 2 2 2 2
left_child=2 26 10 4 5 9 -7 12 15 -3 23 -5 18 -14 -15 -9 17 -13 19 -4 21 22 -12 -1 25 -25 28 -28 29 -2
right_child=1 3 7 11 -6 6 -8 8 -10 -11 20 16 13 14 -16 -17 -18 -19 -20 -21 -22 -23 -24 24 -26 -27 27 -29 -30 -31
leaf_value=0.38433992576599113 -1.6572600224018101 0.73926993751525893 -0.16194011592865004 -0.78327000617980969 -1.7646300230026246 0.59534999656677245 -0.39393002128601079 1.175400054931641 -0.63817816347523926 1.3952700748443605 1.2963192371368788 0.12512036025965437 -0.81147999572753915 -0.40085580030202445 0.22617988586425783 1.1259001235961914 0.33560000610351576 2.0611202305599474 -0.6709400358200075 -1.3179400625228883 0.046820032119751082 -1.7542800312042237 -0.59328092360468687 1.6692399082183842 -0.044760030746459734 0.66223990058898929 0.94170734071618445 -0.5478799362182617 0.60473005485534659 1.594889888763428
leaf_weight=2891 2160 404 4320 505 3933 804 4458 70 624 42 105 520 5302 7250 4800 554 4178 877 6912 6048 5141 1821 154 264 208 165 7776 4263 11624 1296
leaf_count=2891 2160 404 4320 505 3933 804 4458 70 624 42 105 520 5302 7250 4800 554 4178 877 6912 6048 5141 1821 154 264 208 165 7776 4263 11624 1296
internal_value=-0.000612393 0.00263305 -0.00359412 -0.000585843 -0.00345504 0.00051156 -0.00171418 -0.00487458 0.00642628 0.0267713 0.000680061 0.00396381 -0.00528182 -0.00359728 -0.00094606 0.0201282 0.0052287 0.0116177 -0.00697338 -0.00528357 -0.00176015 -0.00677885 0.00891892 0.0056746 0.0148038 0.0224009 0.00449906 0.00279176 0.00586207 -0.00282408
internal_weight=89469 42840 46629 15721 9641 5708 5262 35880 1248 446 10749 6080 34632 17352 12050 624 5575 1397 17280 10368 7221 2080 259 3528 637 429 27119 12039 15080 3456
internal_count=89469 42840 46629 15721 9641 5708 5262 35880 1248 446 10749 6080 34632 17352 12050 624 5575 1397 17280 10368 7221 2080 259 3528 637 429 27119 12039 15080 3456
is_linear=0
shrinkage=0.1


Tree=3
num_leaves=31
num_cat=0
split_feature=4 7 2 4 7 2 7 10 8 7 10 7 7 10 8 10 7 10 2 10 2 3 10 10 4 10 9 10 3 10
split_gain=76.5977 23.0192 34.7542 21.0049 14.6214 21.0288 10.6198 10.389 8.62277 19.6216 15.1967 24.0921 11.609 10.2529 12.1981 9.01051 8.52979 27.8259 16.2473 8.3408 11.2133 8.1609 7.97395 9.821 7.3416 7.24509 7.14979 7.50548 6.77258 6.812
threshold=10.050000000000002 5.5000000000000009 2.3900000000000006 9.9500000000000011 4.5000000000000009 2.3900000000000006 2.5000000000000004 18.500000000000004 4.1950000000000012 1.0000000180025095e-35 14.500000000000002 1.5000000000000002 3.5000000000000004 23.500000000000004 31.365000000000002 22.500000000000004 2.5000000000000004 22.500000000000004 2.3900000000000006 30.500000000000004 2.3900000000000006 64.750000000000014 43.500000000000007 54.500000000000007 14.250000000000002 15.500000000000002 43.515000000000008 20.500000000000004 74.950000000000017 14.500000000000002
decision_type=2 2 2 2 2 2 2 2 2 2 2 2 2 2 2 2 2 2 2 2 2 2 2 2 2 2 2 2 2 2
left_child=3 8 -3 6 16 28 -1 -4 9 22 11 -11 -10 25 -15 -12 19 -18 -19 20 -5 26 -2 -24 -9 -14 -8 -28 -6 -30
right_child=1 2 7 4 5 -7 21 24 12 10 15 -13 13 14 -16 -17 17 18 -20 -21 -22 -23 23 -25 -26 -27 27 -29 29 -31
leaf_value=0.56731606998443629 -1.4915340201616289 -1.5881670207023622 -0.76295995635986325 -0.14574610433578492 -2.2212700733661559 -0.57436034712771533 -0.9299519769907274 0.5860396166312839 0.39033919177066673 -1.9037430479049684 -0.79910196011744383 0.84125698070526134 0.0076082097927709924 -0.74494306278228783 0.45892691211700481 0.53325698833465585 -0.73033199615478539 -0.36077022027182193 0.20356189727783197 -0.72684598646163967 -0.67284599027633696 0.042138028907776008 2.6044011440277099 -0.16159903144836429 2.0910082685391091 0.51646288928985595 0.42435801831240777 1.4576180818557742 1.0028601257324223 1.0683100349426269
leaf_weight=3528 860 3933 756 4320 72 624 2004 1296 18576 238 736 1050 2640 4869 1586 3340 5302 7250 4800 10080 2880 5141 220 360 972 1408 60 15.999999999999998 462 90
leaf_count=3528 860 3933 756 4320 72 624 2004 1296 18576 238 736 1050 2640 4869 1586 3340 5302 7250 4800 10080 2880 5141 220 360 972 1408 60 16 462 90
internal_value=-0.000802403 0.00225023 -0.00301423 -0.00360699 -0.00476868 0.00586538 0.00027072 0.00504629 0.00327091 0.0064756 0.00925801 0.0187267 0.00252106 -0.000136154 -0.00261038 0.00626594 -0.00515189 -0.00358576 -0.000929463 -0.00672454 -0.004125 -0.00192633 -0.00388889 0.00517241 0.00843033 0.00380929 -0.00721154 0.0228947 0.0188462 0.0226087
internal_weight=89469 42840 6957 46629 35880 1248 10749 3024 35883 6804 5364 1288 29079 10503 6455 4076 34632 17352 12050 17280 7200 7221 1440 580 2268 4048 2080 76 624 552
internal_count=89469 42840 6957 46629 35880 1248 10749 3024 35883 6804 5364 1288 29079 10503 6455 4076 34632 17352 12050 17280 7200 7221 1440 580 2268 4048 2080 76 624 552
is_linear=0
shrinkage=0.1


Tree=4
num_leaves=31
num_cat=0
split_feature=4 3 7 2 3 10 7 2 3 10 10 11 10 9 9 8 7 10 10 8 10 9 10 5 10 10 8 8 7 7
split_gain=59.4665 19.3963 18.5394 32.0676 10.456 8.08771 7.93038 20.3804 6.31706 5.82155 14.9361 20.8544 7.79127 6.72492 5.71808 5.39006 5.22048 25.4594 9.79397 4.82146 5.64772 4.66519 15.5297 6.62801 6.3859 8.25212 4.74114 5.88491 9.90897 8.24636
threshold=10.050000000000002 74.450000000000017 5.5000000000000009 2.3900000000000006 62.45000000000001 17.500000000000004 5.5000000000000009 2.3900000000000006 72.350000000000009 10.500000000000002 19.500000000000004 0.37940952255126054 58.500000000000007 15.670000000000003 49.515000000000008 1.7500000000000002 2.5000000000000004 22.500000000000004 30.500000000000004 1.4150000000000003 15.500000000000002 38.460000000000008 3.5000000000000004 19.500000000000004 21.500000000000004 26.500000000000004 -7.3349999999999991 20.885000000000005 1.0000000180025095e-35 1.5000000000000002
decision_type=2 2 2 2 2 2 2 2 2 2 2 2 2 2 2 2 2 2 2 2 2 2 2 2 2 2 2 2 2 2
left_child=1 4 21 -4 15 -5 14 19 -7 13 11 -11 -12 -6 16 -1 18 -18 -3 -8 -21 26 23 -23 -24 -26 -2 28 -28 -29
right_child=2 6 3 5 9 8 7 -9 -10 10 12 -13 -14 -15 -16 -17 17 -19 -20 20 -22 22 24 -25 25 -27 27 29 -30 -31
leaf_value=0.64858245691564731 0.59821731054306049 -0.30256151331901582 -1.4293503186321261 -0.6866639607238767 -0.90082559751510627 1.6459073806500417 0.95757403686523479 -0.57966614138660411 -0.21356392565238594 -0.79721650682301348 -0.1751558940696718 1.5904743750190733 0.63251424074719753 0.48285713805779684 0.6490944550132749 -0.93695677929165488 -0.76829885757446315 -0.017693228762217929 -0.65416138781547561 0.50672399261474621 0.96147903144836422 2.8841313284111028 -0.12383289957693969 1.1462780992052837 1.4153889512839566 0.47993128950119018 -0.34463300403119279 1.3013052725936001 0.12927906244357459 0.14761068414688125
leaf_weight=172 566 7320 3933 714 1080 1650 54 552 660 405 4627 711 1502 160 241 1332 5478 12249 10248 426 72 30 522 57 143 979 3600 5112 13233 11641
leaf_count=172 566 7320 3933 714 1080 1650 54 552 660 405 4627 711 1502 160 241 1332 5478 12249 10248 426 72 30 522 57 143 979 3600 5112 13233 11641
internal_value=-0.00122378 -0.00369491 0.00146592 -0.00325859 0.00021123 0.00448412 -0.00475983 0.00358695 0.0073593 0.00157336 0.002657 0.0132975 0.000719528 -0.00475807 -0.00501914 -0.00747341 -0.00512396 -0.00391324 -0.00634563 0.0171739 0.0140964 0.00238191 0.00744656 0.0486207 0.00526764 0.00951871 0.0021252 0.00197225 0.000651694 0.00329911
internal_weight=89469 46629 42840 6957 9989 3024 36640 1104 2310 8485 7245 1116 6129 1240 35536 1504 35295 17727 17568 552 498 35883 1731 87 1644 1122 34152 33586 16833 16753
internal_count=89469 46629 42840 6957 9989 3024 36640 1104 2310 8485 7245 1116 6129 1240 35536 1504 35295 17727 17568 552 498 35883 1731 87 1644 1122 34152 33586 16833 16753
is_linear=0
shrinkage=0.1


Tree=5
num_leaves=31
num_cat=0
split_feature=4 7 2 4 7 10 7 2 2 10 7 2 3 10 3 10 8 2 0 2 7 10 7 10 11 5 7 9 5 12
split_gain=49.6169 18.8094 26.7351 18.3125 9.18145 15.7475 16.5427 18.1259 14.5363 9.45251 9.06822 8.50083 6.81078 6.56151 6.30864 6.17114 7.53424 4.9071 4.25253 10.0225 16.3258 18.1424 15.7614 9.20296 36.1823 14.5859 9.76475 5.95275 5.15084 4.74689
threshold=10.050000000000002 5.5000000000000009 2.3900000000000006 9.9500000000000011 2.5000000000000004 22.500000000000004 4.5000000000000009 2.3900000000000006 2.3900000000000006 30.500000000000004 3.5000000000000004 2.3900000000000006 66.850000000000009 19.500000000000004 68.250000000000014 7.5000000000000009 8.6450000000000014 2.3900000000000006 20.885000000000005 2.3900000000000006 1.5000000000000002 24.500000000000004 4.5000000000000009 6.5000000000000009 -0.60355339059327362 19.500000000000004 1.5000000000000002 2.8700000000000032 10.500000000000002 -0.70710678118654757
decision_type=2 2 2 2 2 2 2 2 2 2 2 2 2 2 2 2 2 2 2 2 2 2 2 2 2 2 2 2 2 2
left_child=3 18 -3 10 9 6 -6 -8 -7 11 17 -5 15 -4 -14 16 -12 -1 19 20 21 -2 -22 24 25 -20 28 -28 -25 -26
right_child=1 2 13 4 5 8 7 -9 -10 -11 12 -13 14 -15 -16 -17 -18 -19 23 -21 22 -23 -24 26 29 -27 27 -29 -30 -31
leaf_value=0.46933312283461248 -1.8037048752337412 -1.2864152867689134 -0.61799756465148903 -0.10091534257030475 -0.59158294570454473 -0.32292387536841788 0.85541615586109399 -0.52169952724794377 0.18497503042627061 -0.58874524903392822 1.3295112594188625 -0.5753052399168016 1.5886727409071224 0.9567991468243785 -0.19032735064561201 -1.4941425346537649 -0.34726195561597994 0.12574384783776296 1.802144229355914 -0.53437659026916862 0.52772201813792063 0.21300329170409818 -0.062111244848330929 1.4237345693096475 0.81478665315399368 0.5165036405608866 0.49046206177805729 -0.094745708998578246 0.50117466904029484 -0.47749660357973839
leaf_weight=1368 2064 3933 798 4320 5302 7302 572 572 4852 10080 126 2880 360 2226 2765 2016 154 3960 408 3337 5821 4128 3658 1782 252 228 3082 6857 3630 636
leaf_count=1368 2064 3933 798 4320 5302 7302 572 572 4852 10080 126 2880 360 2226 2765 2016 154 3960 408 3337 5821 4128 3658 1782 252 228 3082 6857 3630 636
internal_value=-0.00147414 0.000982724 -0.00377606 -0.00373137 -0.00481606 -0.0032742 -0.00726963 0.00363636 -0.00115518 -0.0064757 -0.00011071 -0.00370834 -0.00299023 0.00329365 4.79976e-05 -0.00712544 0.00678571 0.00281907 0.00190536 0.000879627 0.00193925 -0.00205427 0.00454795 0.00306074 0.0104724 0.0286792 0.00232493 0.000463827 0.00574279 -0.00256757
internal_weight=89469 42840 6957 46629 35880 18600 6446 1144 12154 17280 10749 7200 5421 3024 3125 2296 280 5328 35883 19008 15671 6192 9479 16875 1524 636 15351 9939 5412 888
internal_count=89469 42840 6957 46629 35880 18600 6446 1144 12154 17280 10749 7200 5421 3024 3125 2296 280 5328 35883 19008 15671 6192 9479 16875 1524 636 15351 9939 5412 888
is_linear=0
shrinkage=0.1


Tree=6
num_leaves=31
num_cat=0
split_feature=4 7 2 3 7 10 7 2 10 3 2 10 10 5 10 9 9 10 7 2 3 8 8 7 7 10 10 10 7 2
split_gain=38.8425 17.001 27.161 13.349 13.3208 18.2151 13.9509 20.4545 9.86535 9.65026 7.65525 6.80605 12.6876 9.58807 8.55489 5.81315 5.74739 7.83355 6.55571 5.59907 5.02976 4.59085 5.33905 11.8787 10.8273 9.28097 7.52613 6.7288 5.04695 6.12706
threshold=10.050000000000002 5.5000000000000009 2.3900000000000006 74.450000000000017 2.5000000000000004 22.500000000000004 5.5000000000000009 2.3900000000000006 30.500000000000004 64.750000000000014 2.3900000000000006 9.5000000000000018 21.500000000000004 9.5000000000000018 34.500000000000007 15.670000000000003 43.515000000000008 20.500000000000004 4.5000000000000009 2.3900000000000006 72.350000000000009 30.085000000000004 5.4750000000000005 1.0000000180025095e-35 3.5000000000000004 43.500000000000007 22.500000000000004 10.500000000000002 1.5000000000000002 2.3900000000000006
decision_type=2 2 2 2 2 2 2 2 2 2 2 2 2 2 2 2 2 2 2 2 2 2 2 2 2 2 2 2 2 2
left_child=3 21 -3 9 8 6 -6 -8 10 16 -5 15 13 -13 -14 -11 18 -18 -1 -7 -4 22 23 25 -24 -2 -26 -25 -23 -30
right_child=1 2 20 4 5 19 7 -9 -10 11 -12 12 14 -15 -16 -17 17 -19 -20 -21 -22 28 24 27 26 -27 -28 -29 29 -31
leaf_value=0.43849878701810141 -1.279546828311624 -1.1577737580920222 0.71216548263532864 -0.090823808313274412 -0.6323106772465622 -0.27663154886673241 0.77627501759260198 -0.46952957452314942 -0.52987072413053549 -0.85431746450904211 -0.49677471211042423 1.0980093923540666 -0.8634844142542204 -0.60943827324169486 0.43475865412749642 1.0349571382882303 0.18411284484771606 1.3964122814440085 -0.88874690280488378 0.15647767997153431 -0.33488756983989743 1.235960398692594 0.17268970737637446 0.5947639751985605 0.11387318643766875 1.1881237567170235 -0.65405103651256025 0.39623115092546224 0.45694978580655032 -0.062691559935983673
leaf_weight=360 1032 3933 2160 4380 5522 7255 550 550 10332 927 3000 1056 1423 264 3744 63 60 15.999999999999998 2076 5051 864 3168 11160 960 2662 696 4868 4618 2462 4257
leaf_count=360 1032 3933 2160 4380 5522 7255 550 550 10332 927 3000 1056 1423 264 3744 63 60 16 2076 5051 864 3168 11160 960 2662 696 4868 4618 2462 4257
internal_value=-0.00138249 0.000791314 -0.00373293 -0.00337966 -0.0042631 -0.00241864 -0.00664754 0.00363636 -0.00623419 -0.000139155 -0.00344174 0.00166243 0.00284106 0.0115909 0.000605765 -0.00606061 -0.00550159 0.0215789 -0.00634647 -0.000143022 0.00339285 0.00166848 0.000970916 0.00326307 7.4904e-05 -0.00398148 -0.00285525 0.00550735 0.00350258 0.00195118
internal_weight=89469 42840 6957 46629 36640 18928 6622 1100 17712 9989 7380 7477 6487 1320 5167 990 2512 76 2436 12306 3024 35883 25996 7306 18690 1728 7530 5578 9887 6719
internal_count=89469 42840 6957 46629 36640 18928 6622 1100 17712 9989 7380 7477 6487 1320 5167 990 2512 76 2436 12306 3024 35883 25996 7306 18690 1728 7530 5578 9887 6719
is_linear=0
shrinkage=0.1


Tree=7
num_leaves=31
num_cat=0
split_feature=4 7 2 4 7 10 1 7 2 9 3 10 10 10 10 10 4 8 8 7 10 2 7 10 3 10 2 7 10 5
split_gain=22.3046 16.4615 24.2817 7.07571 11.4576 10.5289 10.2934 7.70996 7.36894 5.7738 5.85438 7.63092 6.90976 5.64751 5.12527 4.50567 4.37871 4.13439 4.85209 7.30233 17.9719 9.34216 6.21874 6.38225 4.5564 4.1338 7.55581 4.55814 3.63558 17.2804
threshold=10.050000000000002 5.5000000000000009 2.3900000000000006 9.9500000000000011 2.5000000000000004 24.500000000000004 18.990000000000006 3.5000000000000004 2.3900000000000006 43.515000000000008 66.850000000000009 4.5000000000000009 56.500000000000007 19.500000000000004 43.500000000000007 15.500000000000002 14.250000000000002 -7.3349999999999991 20.885000000000005 1.0000000180025095e-35 44.500000000000007 2.3900000000000006 2.5000000000000004 34.500000000000007 58.750000000000007 43.500000000000007 2.3900000000000006 1.5000000000000002 68.500000000000014 19.500000000000004
decision_type=2 2 2 2 2 2 2 2 2 2 2 2 2 2 2 2 2 2 2 2 2 2 2 2 2 2 2 2 2 2
left_child=3 17 28 7 25 6 -6 -1 -7 10 11 -9 -12 -4 -11 -8 -15 -2 19 20 -19 -21 23 -20 -24 26 27 -5 -3 -30
right_child=1 2 13 4 5 8 15 9 -10 14 12 -13 -14 16 -16 -17 -18 18 22 21 -22 -23 24 -25 -26 -27 -28 -29 29 -31
leaf_value=0.2179232356477325 0.50498358888104133 -1.0629963860975173 -0.52270905120235056 0.095258618294420228 -0.36635263675454904 -0.24896839398005924 0.10788243786092942 0.38772100176124946 0.15082975938649029 0.57738309178671665 -0.52352877467769587 -1.153872208709698 1.1362297326292468 0.24231879808402024 1.3819746922246319 0.70216201095815833 1.5504202406742231 -1.2192640169382896 1.2424613148548964 0.18872577145244984 1.1462610727578244 -0.41009184016882028 0.44623141488991003 0.23520517224007023 -0.0066639880017920206 -0.47688365171748193 -0.44709724089938163 -1.2377413740761853 -0.67999639372691179 4.1920036806596848
leaf_weight=5328 566 3717 798 3096 6658 7008 215 148 4656 162 2568 2072 460 1272 10.999999999999998 63 954 2200 4012 11346 1400 3186 604 4484 8085 6960 4128 3096 184 32
leaf_count=5328 566 3717 798 3096 6658 7008 215 148 4656 162 2568 2072 460 1272 11 63 954 2200 4012 11346 1400 3186 604 4484 8085 6960 4128 3096 184 32
internal_value=-0.00120142 0.000445843 -0.00400604 -0.00271484 -0.00338908 -0.00166667 -0.00475202 -0.000464232 0.000168036 -0.00311935 -0.00371189 -0.00761261 -0.00085205 0.00273148 0.0148555 0.0141007 0.00531896 0.00130897 0.00117309 3.19853e-05 -0.004 0.00103083 0.00237707 0.00430085 0.000496027 -0.00524306 -0.00397287 -0.00176357 -0.00918637 0.00342592
internal_weight=89469 42840 6957 46629 35880 18600 6936 10749 11664 5421 5248 2220 3028 3024 173 278 2226 35883 35317 18132 3600 14532 17185 8496 8689 17280 10320 6192 3933 216
internal_count=89469 42840 6957 46629 35880 18600 6936 10749 11664 5421 5248 2220 3028 3024 173 278 2226 35883 35317 18132 3600 14532 17185 8496 8689 17280 10320 6192 3933 216
is_linear=0
shrinkage=0.1


Tree=8
num_leaves=31
num_cat=0
split_feature=4 7 2 3 7 10 3 7 2 10 10 5 10 2 10 2 9 7 10 3 10 5 3 9 10 0 10 10 0 10
split_gain=16.0608 14.987 22.4918 6.17847 8.209 9.39093 8.00285 7.50017 17.1259 6.63407 9.89381 8.03712 6.16308 5.73967 4.61003 4.98376 4.10782 4.58785 4.54737 3.77898 3.60632 17.2804 3.51442 3.22991 14.6835 6.16468 4.70677 5.67349 3.18898 4.92535
threshold=10.050000000000002 5.5000000000000009 2.3900000000000006 74.450000000000017 2.5000000000000004 20.500000000000004 64.750000000000014 5.5000000000000009 2.3900000000000006 9.5000000000000018 21.500000000000004 9.5000000000000018 34.500000000000007 2.3900000000000006 25.500000000000004 2.3900000000000006 43.515000000000008 4.5000000000000009 20.500000000000004 50.800000000000004 68.500000000000014 19.500000000000004 72.350000000000009 38.460000000000008 3.5000000000000004 51.750000000000007 21.500000000000004 52.500000000000007 -7.3349999999999991 9.5000000000000018
decision_type=2 2 2 2 2 2 2 2 2 2 2 2 2 2 2 2 2 2 2 2 2 2 2 2 2 2 2 2 2 2
left_child=3 23 20 6 14 7 16 -6 -9 -8 11 -11 -12 -7 15 -5 17 -1 -18 -19 -3 -22 -4 28 25 -25 -26 -28 29 -2
right_child=1 2 22 4 5 13 9 8 -10 10 12 -13 -14 -15 -16 -17 18 19 -20 -21 21 -23 -24 24 26 -27 27 -29 -30 -31
leaf_value=0.37285658475151817 -2.1234759222418091 -0.95669674748776556 0.61671705456339376 -0.09126728931138893 -0.62144428481129488 -0.22407155458205319 -0.6369176213649399 0.63760108965916906 -0.38594135339537949 1.0405613305864296 -0.77999266381647947 -0.55545702751843995 0.36949046514997375 0.12574693603573195 -0.42919528654573363 -0.40238751680944351 0.10796325118427284 1.4122608291649608 1.1990327441209361 -0.73043224703197718 -0.61199675435422063 3.7728033125937168 -0.32563069266430988 0.46515467589898735 -0.32704893181978678 2.3161548177581275 0.65554884886484222 -0.38082302731518286 0.058381397957767693 0.60367028765842923
leaf_weight=360 126 3717 2160 3650 5020 7557 990 540 540 1056 1423 264 3744 5271 11562 2500 60 24 15.999999999999998 2052 184 32 864 39 522 48 782 340 33514 512
leaf_count=360 126 3717 2160 3650 5020 7557 990 540 540 1056 1423 264 3744 5271 11562 2500 60 24 16 2052 184 32 864 39 522 48 782 340 33514 512
internal_value=-0.00129978 9.80368e-05 -0.00414978 -0.00258402 -0.00318505 -0.00173711 -0.00037942 -0.00496722 0.00259259 0.0012612 0.00242485 0.0101515 0.000450936 -0.000201125 -0.00473239 -0.00252033 -0.00526274 -0.00597701 0.0176316 -0.0077842 -0.00913552 0.00342592 0.00233465 0.000921604 0.00513576 0.0451724 0.00301703 0.00666666 0.000708009 0.0077116
internal_weight=89469 42840 6957 46629 36640 18928 9989 6100 1080 7477 6487 1320 5167 12828 17712 6150 2512 2436 76 2076 3933 216 3024 35883 1731 87 1644 1122 34152 638
internal_count=89469 42840 6957 46629 36640 18928 9989 6100 1080 7477 6487 1320 5167 12828 17712 6150 2512 2436 76 2076 3933 216 3024 35883 1731 87 1644 1122 34152 638
is_linear=0
shrinkage=0.1


Tree=9
num_leaves=31
num_cat=0
split_feature=4 7 2 3 7 10 10 10 12 7 10 7 2 2 10 7 10 5 9 10 2 10 2 0 10 11 10 3 1 1
split_gain=11.7649 15.5196 20.8374 4.68663 5.90643 5.97589 6.90023 5.7206 5.3402 4.74767 9.32644 7.10553 16.6259 5.73967 4.45714 3.80687 3.60632 17.2804 3.60024 4.54737 3.34105 3.15802 3.64379 2.97992 12.6465 24.2559 7.64616 7.73653 7.68 6.81562
threshold=10.050000000000002 5.5000000000000009 2.3900000000000006 74.450000000000017 3.5000000000000004 10.500000000000002 22.500000000000004 34.500000000000007 -0.3794095225512602 2.5000000000000004 20.500000000000004 5.5000000000000009 2.3900000000000006 2.3900000000000006 20.500000000000004 1.5000000000000002 68.500000000000014 19.500000000000004 43.515000000000008 20.500000000000004 2.3900000000000006 25.500000000000004 2.3900000000000006 29.73 4.5000000000000009 -0.78656609248549292 4.5000000000000009 81.65000000000002 -1.7199999999999998 23.470000000000002
decision_type=2 2 2 2 2 2 2 2 2 2 2 2 2 2 2 2 2 2 2 2 2 2 2 2 2 2 2 2 2 2
left_child=3 23 16 4 5 -1 15 -8 -6 21 11 -11 -13 -12 -4 -7 -3 -18 20 -20 -10 22 -5 26 25 29 27 -2 -29 -25
right_child=1 2 14 9 8 6 7 -9 18 10 13 12 -14 -15 -16 -17 17 -19 19 -21 -22 -23 -24 24 -26 -27 -28 28 -30 -31
leaf_value=-0.58471644405245693 -1.4795693712753852 -0.86102707273898904 -0.43787507681568449 -0.08214056038025 0.56440520660639626 0.0095709441193477587 -0.68192909104707988 0.42993949904752005 -0.92544175359878733 -0.55929985633016555 -0.20166439912384782 0.57384098069325229 -0.34734721805584173 0.11317224243215876 0.73493225453180855 1.4194729503468573 -0.55079707891879848 3.395522981334345 0.097166926065845524 1.0791294697088425 -0.15649483298979164 -0.3862757578911602 -0.36214876512849908 1.1852461318166581 0.20859825608909227 -0.025229165073277927 0.057015085029006235 0.60724406011570764 2.5918019121884397 1.6848802499661326
leaf_weight=660 1292 3717 840 3650 691 216 792 2508 2112 5020 7557 540 540 5271 2184 576 184 32 60 15.999999999999998 2358 11562 2500 116 10356 404 23343 200 15.999999999999998 156
leaf_count=660 1292 3717 840 3650 691 216 792 2508 2112 5020 7557 540 540 5271 2184 576 184 32 60 16 2358 11562 2500 116 10356 404 23343 200 16 156
internal_value=-0.00121037 -1.4008e-05 -0.00433664 -0.00230951 -0.000389431 0.0021633 0.00358749 0.00157576 -0.00270575 -0.00283297 -0.00173183 -0.00495082 0.00240741 -0.000201125 0.00190476 0.0119697 -0.00913552 0.00342592 -0.00395073 0.0176316 -0.00431768 -0.00400971 -0.00217886 0.000824065 0.0021918 0.0154438 0.00021689 -0.00668435 0.0108333 0.0385294
internal_weight=89469 42840 6957 46629 9989 4752 4092 3300 5237 36640 18928 6100 1080 12828 3024 792 3933 216 4546 76 4470 17712 6150 35883 11032 676 24851 1508 216 272
internal_count=89469 42840 6957 46629 9989 4752 4092 3300 5237 36640 18928 6100 1080 12828 3024 792 3933 216 4546 76 4470 17712 6150 35883 11032 676 24851 1508 216 272
is_linear=0
shrinkage=0.1


Tree=10
num_leaves=31
num_cat=0
split_feature=4 7 2 9 10 2 10 12 3 10 12 10 8 0 10 7 10 2 4 7 10 5 7 3 3 7 10 10 3 10
split_gain=10.5096 15.6415 19.6358 5.0884 5.56898 4.94296 8.39706 5.04565 4.09735 3.92121 8.72446 3.37209 3.20771 3.23185 7.20065 7.01387 16.1739 6.69043 4.47185 4.33102 3.08075 14.6739 2.98469 2.73172 3.50703 5.96545 4.33343 2.41133 6.46211 2.53353
threshold=10.050000000000002 5.5000000000000009 2.3900000000000006 45.455000000000005 9.5000000000000018 2.3900000000000006 11.500000000000002 1.0000000180025095e-35 72.350000000000009 58.500000000000007 -0.5 21.500000000000004 -7.3349999999999991 22.915000000000003 56.500000000000007 1.0000000180025095e-35 44.500000000000007 2.3900000000000006 10.450000000000001 2.5000000000000004 68.500000000000014 19.500000000000004 3.5000000000000004 56.300000000000004 62.45000000000001 5.5000000000000009 2.5000000000000004 24.500000000000004 72.450000000000017 15.500000000000002
decision_type=2 2 2 2 2 2 2 2 2 2 2 2 2 2 2 2 2 2 2 2 2 2 2 2 2 2 2 2 2 2
left_child=3 12 20 5 -5 23 7 -7 11 22 -11 -4 27 15 19 16 -14 -17 -16 -15 -3 -22 -8 -1 26 -26 -25 29 -29 -2
right_child=1 2 8 4 -6 6 9 -9 -10 10 -12 -13 13 14 18 17 -18 -19 -20 -21 21 -23 -24 24 25 -27 -28 28 -30 -31
leaf_value=0.97688019787521663 0.44294558169425963 -0.77492436546509014 -0.088027725398354309 0.51171514130595175 0.22084249050321395 -0.043934014500658952 -0.15662686514552426 -0.69636990121472708 -0.36656084885105999 -0.8524149908884997 0.28385498767136463 1.0372450073925472 -1.0908762106864425 0.94257901752324591 2.6922933281649 0.12684167336514493 1.0200953171833647 -0.4272132975719487 -0.32605072559565224 0.095449188878389546 -0.49571737102691871 3.0559706832009108 0.063664895498517948 0.49915509199594299 -0.32776665769207403 0.45580167912104558 -1.0228975877756517 1.0471456396776577 0.24947613865243065 -2.8230185432969566
leaf_weight=50 210 3717 630 92 363 1685 9306 2066 864 966 2869 1530 2332 6048 48 12887 1484 3553 2842 6123 184 32 4589 32 22815 676 1120 70 160 126
leaf_count=50 210 3717 630 92 363 1685 9306 2066 864 966 2869 1530 2332 6048 48 12887 1484 3553 2842 6123 184 32 4589 32 22815 676 1120 70 160 126
internal_value=-0.00124278 -0.000112047 -0.00445163 -0.00228163 0.00824176 -0.00238533 -0.00127601 -0.00557452 0.00160714 -0.000366613 0.00246414 0.00393518 0.000729312 0.000609619 0.00171901 -0.000215247 -0.00407757 0.000681263 -0.00276817 0.00278449 -0.0091101 0.0025 -0.0011479 -0.00335034 -0.00339772 -0.00313354 -0.00878472 0.00819788 0.016087 0.00279762
internal_weight=89469 42840 6957 46629 455 46174 21481 3751 3024 17730 3835 2160 35883 35317 15061 20256 3816 16440 2890 12171 3933 216 13895 24693 24643 23491 1152 566 230 336
internal_count=89469 42840 6957 46629 455 46174 21481 3751 3024 17730 3835 2160 35883 35317 15061 20256 3816 16440 2890 12171 3933 216 13895 24693 24643 23491 1152 566 230 336
is_linear=0
shrinkage=0.1


Tree=11
num_leaves=31
num_cat=0
split_feature=7 4 2 10 3 2 7 9 10 10 5 10 10 7 4 3 10 12 10 5 10 0 10 8 7 10 8 8 7 10
split_gain=9.55513 15.697 12.718 10.326 6.21817 5.12162 7.39824 4.50585 4.17192 6.10711 5.61556 5.1004 3.82979 3.55687 3.39492 8.94164 3.13158 3.11382 3.08075 14.6739 2.8125 2.60815 2.57269 2.57146 4.06675 12.0832 11.1237 7.73755 8.72376 4.00228
threshold=5.5000000000000009 10.050000000000002 2.3900000000000006 20.500000000000004 74.450000000000017 2.3900000000000006 2.5000000000000004 45.455000000000005 59.500000000000007 45.500000000000007 8.5000000000000018 65.500000000000014 21.500000000000004 3.5000000000000004 10.65 74.950000000000017 16.500000000000004 -0.5 68.500000000000014 19.500000000000004 2.5000000000000004 50.975000000000009 46.500000000000007 29.410000000000004 1.0000000180025095e-35 45.500000000000007 23.300000000000004 8.6450000000000014 3.5000000000000004 67.500000000000014
decision_type=2 2 2 2 2 2 2 2 2 2 2 2 2 2 2 2 2 2 2 2 2 2 2 2 2 2 2 2 2 2
left_child=1 4 7 -4 8 21 -7 14 9 13 11 -10 -8 -1 15 20 -17 -11 -16 -20 -2 -6 -5 24 25 26 -3 -26 -29 -27
right_child=2 23 3 22 5 6 12 -9 10 17 -12 -13 -14 -15 18 16 -18 -19 19 -21 -22 -23 -24 -25 27 29 -28 28 -30 -31
leaf_value=0.40521348823566306 0.20335120293556552 -0.98714066852533588 -0.33921913676186155 0.88948896806349476 -0.40514977753786141 -0.20898554136385883 -0.10073644035564336 0.51554355088141157 1.1153276284673164 2.7068963746216581 -0.89155801341981911 0.31827692072096259 0.095488528639090839 -0.09210235188836223 -0.69743192891858108 0.51355848085539513 0.51958023170289269 -1.1040328788046645 -0.44614563392422685 2.7503736148808198 -1.0156078337664582 0.51979829041388326 0.044683448742520684 0.29530147224378284 0.32304761915951236 1.1640856939122937 1.2833305173873961 0.15582055261909961 -0.34172430661009279 -0.39728118243244542
leaf_weight=2970 28 2385 1500 1260 20736 7200 2205 20 463 56 377 499 5154 2732 3717 476 56 1452 184 32 980 241 1248 10103 7076 1430 540 7056 6968 325
leaf_count=2970 28 2385 1500 1260 20736 7200 2205 20 463 56 377 499 5154 2732 3717 476 56 1452 184 32 980 241 1248 10103 7076 1430 540 7056 6968 325
internal_value=-0.00125507 -0.000898862 -0.00425324 2.99377e-05 -0.00216287 -0.00274539 -0.00130435 -0.00737848 0.000258507 -0.000693484 0.00538461 0.00943867 0.000925395 0.000803225 -0.00755162 -0.00357143 0.00691729 -0.00635279 -0.0091101 0.0025 -0.00910715 -0.00374553 0.00395534 0.000654068 0.000124125 -0.00254274 -0.00647863 0.000715637 -0.000644612 0.00401709
internal_weight=89469 79968 9501 4008 44085 35536 14559 5493 8549 7210 1339 962 7359 5702 5473 1540 532 1508 3933 216 1008 20977 2508 35883 25780 4680 2925 21100 14024 1755
internal_count=89469 79968 9501 4008 44085 35536 14559 5493 8549 7210 1339 962 7359 5702 5473 1540 532 1508 3933 216 1008 20977 2508 35883 25780 4680 2925 21100 14024 1755
is_linear=0
shrinkage=0.1


Tree=12
num_leaves=31
num_cat=0
split_feature=7 4 2 3 2 4 10 7 0 10 12 7 9 7 4 4 3 4 3 10 10 5 10 10 10 10 4 0 10 3
split_gain=9.57653 13.0565 12.7272 8.31958 5.26343 7.02596 7.06135 7.33396 5.16925 4.63273 7.45269 4.9635 4.53012 3.29387 9.53055 3.05044 4.152 2.86056 7.83055 3.45533 3.08075 14.6739 2.83408 2.73547 2.51196 2.37656 2.36607 2.26572 4.17031 7.38508
threshold=5.5000000000000009 10.050000000000002 2.3900000000000006 73.050000000000011 2.3900000000000006 9.9500000000000011 4.5000000000000009 4.5000000000000009 32.755000000000003 58.500000000000007 -0.5 4.5000000000000009 45.455000000000005 3.5000000000000004 8.9500000000000011 14.250000000000002 70.450000000000017 10.65 74.950000000000017 16.500000000000004 68.500000000000014 19.500000000000004 61.500000000000007 60.500000000000007 1.5000000000000002 12.500000000000002 9.2500000000000018 -7.3349999999999991 30.500000000000004 69.750000000000014
decision_type=2 2 2 2 2 2 2 2 2 2 2 2 2 2 2 2 2 2 2 2 2 2 2 2 2 2 2 2 2 2
left_child=1 4 12 15 5 6 8 -8 -1 13 23 -12 17 26 -15 16 22 18 24 -20 -19 -22 -4 -11 -2 -17 -6 28 -3 -30
right_child=2 27 3 -5 9 -7 7 -9 -10 10 11 -13 -14 14 -16 25 -18 20 19 -21 21 -23 -24 -25 -26 -27 -28 -29 29 -31
leaf_value=-0.29914544279698768 0.38761060470596725 0.022091545752630698 1.197327388498421 -0.30529722308567531 -0.010612630363959498 -0.36463479978407531 0.32372173498046025 -0.6482699740077833 1.378974168678254 0.21108082402887002 0.14486477789977351 1.2402901456279807 0.46398919579327047 -0.4009224091232424 0.095939523187291098 -0.64930294000020372 -0.3828535997371475 -0.62768873602672304 0.46220263276985563 0.46762220853260372 -0.4015310705318042 2.4753362533927374 -1.5246725428370285 -0.9185081746531758 -0.89983501428517332 1.116571731917255 -0.22553501077798224 0.046007570698284539 1.2169611199557335 0.2446780226840396
leaf_weight=60 13.999999999999998 420 427 1272 2784 20808 1440 1104 104 136 2617 196 20 2070 3192 192 1080 3717 476 56 184 32 77 816 994 960 8758 35245 70 148
leaf_count=60 14 420 427 1272 2784 20808 1440 1104 104 136 2617 196 20 2070 3192 192 1080 3717 476 56 184 32 77 816 994 960 8758 35245 70 148
internal_value=-0.00137802 -0.00102141 -0.00437954 -9.48128e-05 -0.00217421 -0.00319612 0.00159527 0.00029874 0.0217073 -0.00100589 0.00216467 0.00475293 -0.00750592 -0.00171626 0.000357276 0.00301169 0.000164139 -0.00767952 -0.00402598 0.00578947 -0.0091101 0.0025 0.00765873 -0.0054832 -0.00920635 0.00692708 -0.00266159 0.000394892 0.00630094 0.0175229
internal_weight=89469 79968 9501 4008 44085 23516 2708 2544 164 20569 3765 2813 5493 16804 5262 2736 1584 5473 1540 532 3933 216 504 952 1008 1152 11542 35883 638 218
internal_count=89469 79968 9501 4008 44085 23516 2708 2544 164 20569 3765 2813 5493 16804 5262 2736 1584 5473 1540 532 3933 216 504 952 1008 1152 11542 35883 638 218
is_linear=0
shrinkage=0.1


Tree=13
num_leaves=31
num_cat=0
split_feature=7 2 4 10 9 3 2 7 4 10 10 9 8 4 3 10 10 5 10 10 3 5 10 10 10 10 3 7 10 0
split_gain=10.9911 11.7865 9.60718 7.91808 4.51971 3.95869 3.76583 4.81838 4.94344 3.28434 7.61853 5.53556 3.49772 3.08397 7.52281 3.45533 3.08075 14.6739 2.7769 2.76073 2.30375 4.62553 13.6617 2.63768 4.24535 2.55327 2.30251 2.52903 2.19979 2.16583
threshold=5.5000000000000009 2.3900000000000006 10.050000000000002 20.500000000000004 45.455000000000005 71.65000000000002 2.3900000000000006 2.5000000000000004 9.9500000000000011 58.500000000000007 45.500000000000007 24.235000000000003 48.245000000000012 10.65 74.950000000000017 16.500000000000004 68.500000000000014 19.500000000000004 2.5000000000000004 36.500000000000007 70.450000000000017 16.500000000000004 27.500000000000004 26.500000000000004 39.500000000000007 44.500000000000007 76.050000000000011 1.5000000000000002 3.5000000000000004 -7.3349999999999991
decision_type=2 2 2 2 2 2 2 2 2 2 2 2 2 2 2 2 2 2 2 2 2 2 2 2 2 2 2 2 2 2
left_child=2 4 5 -3 13 9 26 -8 -9 10 19 12 -11 14 18 -16 -15 -18 -2 -1 23 25 -23 -5 -25 -22 27 -7 -28 -4
right_child=1 3 29 20 -6 6 7 8 -10 11 -12 -13 -14 16 15 -17 17 -19 -20 -21 21 22 -24 24 -26 -27 28 -29 -30 -31
leaf_value=0.0072885179080371329 0.23387074173574907 -0.27939188600413872 0.37281887539898517 -1.7177369864062844 0.41759027621394368 -0.13217122062353895 -0.14265734192906906 -0.542895581461594 0.063562500941187136 0.53235961479785665 -0.99256832788780225 -1.1596250250101174 -0.90090102791443527 -0.56491986242405068 0.41598236949287043 0.42085998767934341 -0.36137796347862372 2.2278026280534635 -0.82406354896129508 0.61556934081471248 0.32201998057443648 2.1082416838518796 0.34389408002887278 1.9511142808219497 0.80287594328014633 -0.58155086967228831 1.2798336802422665 -0.43561475482514234 0.19855722263675518 0.041406813628456267
leaf_weight=3700 28 1500 638 84 20 5184 8208 1068 6984 782 1111 196 160 3717 476 56 184 32 980 827 492 98 630 182 462 560 11.999999999999998 15624 229 35245
leaf_count=3700 28 1500 638 84 20 5184 8208 1068 6984 782 1111 196 160 3717 476 56 184 32 980 827 492 98 630 182 462 560 12 15624 229 35245
internal_value=-0.00122713 -0.00444269 -0.00084509 -0.000319364 -0.0074513 -0.00183396 -0.0022378 -0.00109471 0.000643316 0.000389608 -0.000599506 0.00528998 0.00847134 -0.00762471 -0.00383117 0.00578947 -0.0091101 0.0025 -0.00890873 0.00122156 0.00311802 0.00117977 0.00730769 0.00785714 0.0100311 -0.00306084 -0.00312082 -0.00323337 0.00659751 0.000369811
internal_weight=89469 9501 79968 4008 5493 44085 37309 16260 8052 6776 5638 1138 942 5473 1540 532 3933 216 1008 4527 2508 1780 728 728 644 1052 21049 20808 241 35883
internal_count=89469 9501 79968 4008 5493 44085 37309 16260 8052 6776 5638 1138 942 5473 1540 532 3933 216 1008 4527 2508 1780 728 728 644 1052 21049 20808 241 35883
is_linear=0
shrinkage=0.1


Tree=14
num_leaves=31
num_cat=0
split_feature=7 2 4 10 9 2 10 12 4 7 10 3 10 10 7 10 3 3 4 10 10 10 0 0 7 10 10 8 10 3
split_gain=9.57295 9.21641 8.80963 7.13599 4.40599 4.17892 4.99421 6.13939 4.43158 4.90705 13.6196 2.66381 2.60245 2.56992 2.40362 13.3478 2.07902 2.07402 6.31382 5.256 3.83106 3.13043 6.4463 2.02642 6.54601 15.0229 5.52819 5.26262 5.06569 19.0325
threshold=5.5000000000000009 2.3900000000000006 10.050000000000002 20.500000000000004 45.455000000000005 2.3900000000000006 11.500000000000002 1.0000000180025095e-35 9.9500000000000011 4.5000000000000009 8.5000000000000018 68.950000000000017 68.500000000000014 56.500000000000007 1.5000000000000002 31.500000000000004 72.350000000000009 70.350000000000009 11.050000000000002 55.500000000000007 15.500000000000002 3.5000000000000004 39.925000000000004 22.915000000000003 1.0000000180025095e-35 44.500000000000007 3.5000000000000004 8.2250000000000014 7.5000000000000009 75.450000000000017
decision_type=2 2 2 2 2 2 2 2 2 2 2 2 2 2 2 2 2 2 2 2 2 2 2 2 2 2 2 2 2 2
left_child=2 4 5 16 17 8 7 -7 9 12 -11 13 -1 -8 15 -10 -3 21 20 -20 -19 22 -2 24 25 -4 -26 -28 29 -25
right_child=1 3 23 -5 -6 6 11 -9 14 10 -12 -13 -14 -15 -16 -17 -18 18 19 -21 -22 -23 -24 28 26 -27 27 -29 -30 -31
leaf_value=0.23811360000262882 -0.32442786092285653 -0.16151796019372466 -0.8918159611979386 0.42107573359919004 0.37583124859254941 0.018177176356498136 0.089414881626834489 -0.60046201607401051 0.22604578699789712 0.91713294191723682 -0.87532287139655995 -0.017436331125022877 0.41028913352037577 2.6102236594215871 -0.39205327934262812 -0.80919021618230147 -0.25758820317661207 0.3743841325435831 -0.6194278656912281 0.026572114281611284 0.32588389439279086 -0.6194278656912281 0.27040403675586316 -0.12695594470614263 -1.4535899945471762 0.82280085021141725 0.32700509449039677 -0.016361557834564167 0.094713192228935136 1.2882301790712449
leaf_weight=1452 90 680 2332 2508 20 1430 378 1870 2232 152 1028 16811 76 80 15624 2952 820 460 1805 544 72 2484 18 875 795 1484 4962 11249 13465 721
leaf_count=1452 90 680 2332 2508 20 1430 378 1870 2232 152 1028 16811 76 80 15624 2952 820 460 1805 544 72 2484 18 875 795 1484 4962 11249 13465 721
internal_value=-0.00118913 -0.00419009 -0.000832585 -0.000543915 -0.00685054 -0.00177952 -0.000738492 -0.00430303 -0.00269009 0.00111521 -0.00372882 -5.73305e-05 0.00485602 0.00746725 -0.00318532 -0.00131945 -0.006 -0.00702175 -0.00517529 -0.00740315 0.00466165 -0.00907408 0.00759259 0.000330795 -0.00030833 -0.00405137 0.000531575 0.000930847 0.00121439 0.00654135
internal_weight=89469 9501 79968 4008 5493 44085 20569 3300 23516 2708 1180 17269 1528 458 20808 5184 1500 5473 2881 2349 532 2592 108 35883 20822 3816 17006 16211 15061 1596
internal_count=89469 9501 79968 4008 5493 44085 20569 3300 23516 2708 1180 17269 1528 458 20808 5184 1500 5473 2881 2349 532 2592 108 35883 20822 3816 17006 16211 15061 1596
is_linear=0
shrinkage=0.1


Tree=15
num_leaves=31
num_cat=0
split_feature=7 2 10 9 3 10 10 5 10 8 4 2 3 8 10 0 7 10 10 3 4 10 10 10 0 4 10 5 9 10
split_gain=7.48048 7.43941 5.0395 4.22638 3.81271 9.6676 6.19302 4.69144 4.54441 3.45098 3.32931 3.08867 2.33381 6.06409 3.54715 3.31492 5.88257 5.06615 2.86237 2.32284 4.5875 3.98628 3.96653 2.31221 4.44444 2.0811 3.37805 3.15042 2.02406 1.60767
threshold=5.5000000000000009 2.3900000000000006 19.500000000000004 45.455000000000005 58.750000000000007 17.500000000000004 37.500000000000007 20.500000000000004 19.500000000000004 8.6450000000000014 10.050000000000002 2.3900000000000006 66.600000000000009 -2.1549999999999998 23.500000000000004 22.915000000000003 1.0000000180025095e-35 5.5000000000000009 23.500000000000004 70.350000000000009 11.050000000000002 69.500000000000014 15.500000000000002 2.5000000000000004 39.925000000000004 14.250000000000002 38.500000000000007 6.5000000000000009 -27.299999999999997 59.500000000000007
decision_type=2 2 2 2 2 2 2 2 2 2 2 2 2 2 2 2 2 2 2 2 2 2 2 2 2 2 2 2 2 2
left_child=4 3 -3 19 5 9 7 11 -9 -1 28 -7 13 18 -15 16 -14 -17 -12 23 22 -22 -21 24 -2 26 27 -4 -6 -30
right_child=1 2 25 -5 10 6 -8 8 -10 -11 12 -13 15 14 -16 17 -18 -19 -20 20 21 -23 -24 -25 -26 -27 -28 -29 29 -31
leaf_value=0.31324763847523102 -0.29198507483057085 -0.23182938285895072 -0.78172918038275763 0.33824812373329466 -0.37760396944609137 0.45911761590266364 0.96919506866935456 -2.6358284132986514 1.1099729416261035 -0.23732347060802594 0.30690428320959029 -0.21152661416524357 -0.55204604742908892 0.050978475046283833 -1.041529824253103 0.69601451197349107 0.035236744863040313 0.16014721020251238 0.86435383693680279 0.3369457192892249 -0.47008507902673791 1.9723652301139012 0.29329550495351203 -0.55748507912210532 0.32595128303917559 0.90894642500280254 -0.25179581188917272 0.73820729616268754 -0.10626696218971468 0.011023967706714899
leaf_weight=187 60 1444 153 20 3627 432 52 15.999999999999998 47 561 253 205 3672 1058 1865 1000 14172 12603 112 460 2253 96 72 2520 11.999999999999998 954 1020 437 33027 7079
leaf_count=187 60 1444 153 20 3627 432 52 16 47 561 253 205 3672 1058 1865 1000 14172 12603 112 460 2253 96 72 2520 12 954 1020 437 33027 7079
internal_value=-0.000842641 -0.00349542 -0.000219563 -0.00588568 -0.000527463 0.00446666 0.0124734 0.01 0.0360317 -0.00358289 -0.000622931 0.00742543 0.000107958 -0.00242701 -0.00394458 0.000373006 -0.000523428 0.00154892 0.00972603 -0.00605336 -0.00409927 -0.0059983 0.00428571 -0.00822531 0.00944444 0.0024415 0.000248445 0.00627118 -0.00120344 -0.000998855
internal_weight=89469 9501 4008 5493 79968 1500 752 700 63 748 78468 637 34735 3288 2923 31447 17844 13603 365 5473 2881 2349 532 2592 72 2564 1610 590 43733 40106
internal_count=89469 9501 4008 5493 79968 1500 752 700 63 748 78468 637 34735 3288 2923 31447 17844 13603 365 5473 2881 2349 532 2592 72 2564 1610 590 43733 40106
is_linear=0
shrinkage=0.1


Tree=16
num_leaves=31
num_cat=0
split_feature=7 3 0 10 9 2 4 10 0 4 10 5 3 4 2 10 0 10 8 7 8 7 7 7 3 9 3 9 10 10
split_gain=8.27425 6.70445 5.77995 5.12088 4.15097 4.04932 3.41651 3.12123 6.18687 2.8983 3.19797 12.005 2.89506 2.78885 2.475 2.79408 2.07327 9.93345 2.08873 3.4248 7.78123 5.92453 2.36066 2.09349 1.95066 1.72684 1.92805 4.22824 1.44518 6.95023
threshold=5.5000000000000009 66.850000000000009 19.825000000000003 14.500000000000002 45.455000000000005 2.3900000000000006 14.250000000000002 3.5000000000000004 39.925000000000004 11.050000000000002 67.500000000000014 19.500000000000004 70.15000000000002 10.050000000000002 2.3900000000000006 8.5000000000000018 -7.8549999999999995 32.500000000000007 29.410000000000004 4.5000000000000009 -2.1549999999999998 1.5000000000000002 1.5000000000000002 4.5000000000000009 50.800000000000004 -27.299999999999997 70.950000000000017 27.615000000000006 15.500000000000002 19.500000000000004
decision_type=2 2 2 2 2 2 2 2 2 2 2 2 2 2 2 2 2 2 2 2 2 2 2 2 2 2 2 2 2 2
left_child=13 7 9 4 12 -5 -7 8 -2 14 -11 -12 -4 24 15 -3 17 28 19 21 -21 -18 -20 -24 -1 -26 27 -27 -15 -30
right_child=1 2 3 5 -6 6 -8 -9 -10 10 11 -13 -14 16 -16 -17 18 -19 22 20 -22 -23 23 -25 25 26 -28 -29 29 -31
leaf_value=1.3157342755966774 -0.23623661755846737 0.30325114736030234 0.27522913930484527 0.35224114636848047 0.30442331135996525 -0.029925526530377767 0.8270734567038347 -0.52296590053750647 0.21076850477635942 -0.40547657598780307 -1.1495488564369645 1.8295529067930147 -0.517098723094502 -0.2856253148328694 -0.16136279066613446 0.41378606099555526 -0.16837566823227276 1.0137075146134518 0.84812961639396534 0.45406102148097971 -0.37524904601983383 0.20242513872055667 -0.060203347600834435 0.27852963688255489 -0.33984357250148217 0.17893461197663638 -0.10171466069091545 -0.2586951487642562 0.4762614201992495 -0.82303069622522329
leaf_weight=24 81 164 168 88 20 1654 928 2277 18 2725 160 40 902 90 220 56 9216 30 3168 446 6031 9865 4870 2065 3627 4116 35348 970 24 78
leaf_count=24 81 164 168 88 20 1654 928 2277 18 2725 160 40 902 90 220 56 9216 30 3168 446 6031 9865 4870 2065 3627 4116 35348 970 24 78
internal_value=-0.000800168 -0.00359015 -0.00205614 0.000638295 -0.00513762 0.00299625 0.0022773 -0.00819024 0.00919192 -0.00506687 -0.00620513 0.006 -0.00598131 -0.00046869 0.0025 0.01 0.00018588 0.00981982 0.000125905 -0.000355273 -0.00234214 0.000319163 0.00134316 0.000310019 -0.00100148 -0.001017 -0.000829502 0.000990953 0.00145833 0.00960784
internal_weight=89469 9501 7125 3760 1090 2670 2582 2376 99 3365 2925 200 1070 79968 440 220 35883 222 35661 25558 6477 19081 10103 6935 44085 44061 40434 5086 192 102
internal_count=89469 9501 7125 3760 1090 2670 2582 2376 99 3365 2925 200 1070 79968 440 220 35883 222 35661 25558 6477 19081 10103 6935 44085 44061 40434 5086 192 102
is_linear=0
shrinkage=0.1


Tree=17
num_leaves=31
num_cat=0
split_feature=7 3 3 10 5 10 9 1 3 10 8 10 10 8 9 1 10 10 10 11 9 10 10 11 10 10 11 10 10 0
split_gain=7.48204 6.04684 5.96662 3.71269 16.4621 5.72024 3.35877 3.01544 2.65279 8.21709 4.72372 8.62421 2.79764 2.53888 2.34841 2.17009 23.4626 8.71109 10.1248 5.99975 2.20218 5.77667 2.76293 19.5658 2.72348 2.3095 2.12621 1.8055 1.72466 3.18759
threshold=5.5000000000000009 66.850000000000009 75.250000000000014 66.500000000000014 19.500000000000004 68.500000000000014 45.455000000000005 -22.694999999999997 58.750000000000007 35.500000000000007 11.600000000000003 30.500000000000004 16.500000000000004 22.080000000000002 -6.5399999999999991 27.680000000000003 2.5000000000000004 19.500000000000004 26.500000000000004 -0.60355339059327362 35.445000000000007 2.5000000000000004 2.5000000000000004 -0.9159756150367534 70.500000000000014 20.500000000000004 -0.9159756150367534 4.5000000000000009 3.5000000000000004 32.350000000000009
decision_type=2 2 2 2 2 2 2 2 2 2 2 2 2 2 2 2 2 2 2 2 2 2 2 2 2 2 2 2 2 2
left_child=8 28 3 6 -5 -6 7 -3 9 10 11 -1 -12 -11 -14 20 19 27 -19 26 22 -22 23 -10 -23 -24 -17 -18 29 -2
right_child=1 2 -4 4 5 -7 -8 -9 15 13 12 -13 14 -15 -16 16 17 18 -20 -21 21 24 25 -25 -26 -27 -28 -29 -30 -31
leaf_value=0.21549555927389996 -0.27916291512841024 -0.35018892410153191 -0.38252891352528373 -0.77713589764212265 0.76498276566052625 1.8664183710433286 0.27398098022396911 -0.039640877028941902 0.72469362987744401 -0.26639827230862745 -0.29264650223426436 1.0149202993294535 0.25633662582300509 0.85733683944605199 -0.34559825952938861 1.5680802192324805 0.13808012982544968 1.1090128164350832 0.092045507332241178 0.10175229134977289 0.57023946976829942 -0.47514240875090752 0.025934993686740529 -0.81165776250941823 0.23354944648955414 -0.064441409726512688 1.4699257569610358 -0.90524598254610356 -0.47066931048375588 0.42711209344869783
leaf_weight=491 63 466 1917 258 28 56 20 4380 226 11.999999999999998 416 29 299 79 174 36 122 427 2563 28 78 2492 18576 1838 66 51043 58 915 2277 36
leaf_count=491 63 466 1917 258 28 56 20 4380 226 12 416 29 299 79 174 36 122 427 2563 28 78 2492 18576 1838 66 51043 58 915 2277 36
internal_value=-0.000747636 -0.0034007 -0.00194386 -0.000188174 0.00988304 0.0483333 -0.000896016 -0.0010648 -0.000432425 0.00373333 0.00185238 0.00942307 -0.00257593 0.0328571 0.00268499 -0.000512058 0.00171366 0.000404765 0.00314381 0.044918 -0.000636313 -0.00347496 -0.000531928 -0.0041376 -0.00429242 -0.00042503 0.0570213 -0.00749277 -0.00776936 0.00515151
internal_weight=89469 9501 7125 5208 342 84 4866 4846 79968 1500 1409 520 889 91 473 78468 4149 4027 2990 122 74319 2636 71683 2064 2558 69619 94 1037 2376 99
internal_count=89469 9501 7125 5208 342 84 4866 4846 79968 1500 1409 520 889 91 473 78468 4149 4027 2990 122 74319 2636 71683 2064 2558 69619 94 1037 2376 99
is_linear=0
shrinkage=0.1


Tree=18
num_leaves=31
num_cat=0
split_feature=7 2 10 9 10 5 9 10 0 10 3 10 10 4 3 10 10 4 10 5 8 10 0 10 10 10 10 10 10 3
split_gain=7.1101 5.67784 4.43227 4.13632 2.52626 6.22353 2.66944 2.66667 2.33078 5.90554 2.19592 4.2092 4.9448 2.06025 4.91386 2.00694 1.95503 1.93303 2.46696 2.57417 1.8013 6.16806 1.91715 13.711 7.23442 1.72156 4.12397 2.84444 1.43929 1.39015
threshold=5.5000000000000009 2.3900000000000006 19.500000000000004 45.455000000000005 66.500000000000014 19.500000000000004 -31.489999999999998 68.500000000000014 -7.9449999999999994 33.500000000000007 88.750000000000014 50.500000000000007 8.5000000000000018 10.65 74.950000000000017 2.5000000000000004 31.500000000000004 14.250000000000002 38.500000000000007 6.5000000000000009 -7.9449999999999994 27.500000000000004 28.940000000000001 2.5000000000000004 2.5000000000000004 10.500000000000002 20.500000000000004 16.500000000000004 14.500000000000002 70.450000000000017
decision_type=2 2 2 2 2 2 2 2 2 2 2 2 2 2 2 2 2 2 2 2 2 2 2 2 2 2 2 2 2 2
left_child=8 3 29 4 13 6 -6 -7 9 25 20 12 15 14 -2 -12 -14 18 19 -4 21 28 24 -24 -22 -1 27 -27 -10 -3
right_child=1 2 17 -5 5 7 -8 -9 10 -11 11 -13 16 -15 -16 -17 -18 -19 -20 -21 22 -23 23 -25 -26 26 -28 -29 -30 -31
leaf_value=-1.1269397450187371 -0.52594530322078936 0.15719162388234617 -0.69659962198855008 0.24658288220157232 0.11052465803328584 1.5587200031896666 -0.27037305678348877 1.6574262169383163 0.25263097207159901 0.88670310056980606 -0.11993290366961223 0.82761296986873922 -0.49255707598392179 -0.35496483640817439 0.27689012032716676 0.62270523739016737 0.2372190722364993 0.74509712540510931 -0.20865952930916729 0.6713432069023505 -0.82700426827147011 0.77119880654442141 0.5109686926363558 -0.021513549714519447 -0.045658537506561098 0.033618079324611472 -0.7856699483836963 0.40300161559702374 -0.50060955284296693 -0.20373135157879291
leaf_weight=60 924 266 153 20 36 15.999999999999998 324 32 84 24 11.999999999999998 27 138 3609 532 36 114 954 1020 437 1618 24 698 22575 54342 36 78 24 78 1178
leaf_count=60 924 266 153 20 36 16 324 32 84 24 12 27 138 3609 532 36 114 954 1020 437 1618 24 698 22575 54342 36 78 24 78 1178
internal_value=-0.000719693 -0.00330597 -0.000444114 -0.00539414 -0.00556002 0.0020098 -0.0025 0.0358333 -0.000412417 0.00981982 -0.000440902 0.007737 0.00433333 -0.0061698 -0.00299451 0.03375 -0.00126984 0.00205148 -6.21142e-05 0.00508474 -0.000474574 0.00935484 -0.000497649 0.000265112 -0.00081487 0.00414141 0.0102899 0.03 0.00234568 -0.00487535
internal_weight=89469 9501 4008 5493 5473 408 360 48 79968 222 79746 327 300 5065 1456 48 252 2564 1610 590 79419 186 79233 23273 55960 198 138 60 162 1444
internal_count=89469 9501 4008 5493 5473 408 360 48 79968 222 79746 327 300 5065 1456 48 252 2564 1610 590 79419 186 79233 23273 55960 198 138 60 162 1444
is_linear=0
shrinkage=0.1


Tree=19
num_leaves=31
num_cat=0
split_feature=7 3 0 10 10 9 2 4 4 3 10 0 2 0 10 8 10 3 10 10 10 10 10 4 1 2 10 10 10 5
split_gain=5.81632 5.31356 4.40855 5.11855 5.0997 4.13412 4.02062 3.77677 3.16087 2.85034 2.64728 7.33333 2.475 2.3177 5.90554 1.77844 6.16806 1.72801 3.68028 3.97338 1.72156 4.12397 2.84444 1.67967 1.80755 1.67372 1.43929 6.94286 1.12821 1.04257
threshold=5.5000000000000009 66.850000000000009 19.825000000000003 58.500000000000007 14.500000000000002 45.455000000000005 2.3900000000000006 11.050000000000002 14.250000000000002 70.15000000000002 4.5000000000000009 39.925000000000004 2.3900000000000006 -7.9449999999999994 33.500000000000007 -7.9449999999999994 27.500000000000004 88.750000000000014 49.500000000000007 8.5000000000000018 10.500000000000002 20.500000000000004 16.500000000000004 3.4000000000000004 25.585000000000004 2.3900000000000006 14.500000000000002 9.5000000000000018 31.500000000000004 4.5000000000000009
decision_type=2 2 2 2 2 2 2 2 2 2 2 2 2 2 2 2 2 2 2 2 2 2 2 2 2 2 2 2 2 2
left_child=13 10 3 7 5 9 29 12 -8 -4 11 -2 -3 14 20 16 26 23 19 -19 -1 22 -22 -17 -25 -5 27 -15 -23 -6
right_child=1 2 4 25 6 -7 8 -9 -10 -11 -12 -13 -14 15 -16 17 -18 18 -20 -21 21 28 -24 24 -26 -27 -28 -29 -30 -31
leaf_value=-1.0142457705168633 -0.17575013043800861 0.3042010320005048 0.23595115068902009 0.18522044334825011 0.20354821322221214 0.22192459398141509 -0.047826402641254782 -0.3586954744285214 0.67382048619583446 -0.44105162792427849 -0.39656507375703143 0.27804482875094488 -0.092939802353685694 -0.28106796502662673 0.79803279051282527 -0.49782113675448747 0.6940789258899791 0.46445717895802824 0.74485167288186538 -0.2281818750079781 0.030256271392150327 -2.8243308101752138 0.3627014540373214 -0.045587516896647889 0.12429841213172595 -0.79248973012422086 -0.45054859755867027 0.40595122482925028 0.31146265017495911 0.29556502920435318
leaf_weight=60 108 220 168 490 70 20 1654 2365 928 902 2244 24 220 54 24 577 24 48 33 246 36 66 24 73375 5281 70 78 30 11.999999999999998 18
leaf_count=60 108 220 168 490 70 20 1654 2365 928 902 2244 24 220 54 24 577 24 48 33 246 36 66 24 73375 5281 70 78 30 12 18
internal_value=-0.000661572 -0.00300074 -0.00163509 -0.00426449 0.000718083 -0.00504587 0.00307116 -0.00600713 0.00235476 -0.00588785 -0.00709596 0.00666666 0.0025 -0.000383656 0.00981982 -0.000412061 0.00935484 -0.000434894 0.00681957 0.0032653 0.00414141 0.0102899 0.03 -0.000464834 -0.000425399 0.00446428 0.00234568 0.0114286 -0.0048718 0.0240909
internal_weight=89469 9501 7125 3365 3760 1090 2670 2805 2582 1070 2376 132 440 79968 222 79746 186 79560 327 294 198 138 60 79233 78656 560 162 84 78 88
internal_count=89469 9501 7125 3365 3760 1090 2670 2805 2582 1070 2376 132 440 79968 222 79746 186 79560 327 294 198 138 60 79233 78656 560 162 84 78 88
is_linear=0
shrinkage=0.1


Tree=20
num_leaves=31
num_cat=0
split_feature=7 3 0 10 10 8 2 4 5 10 0 10 2 4 3 4 8 7 10 8 10 7 8 10 10 10 10 10 5 4
split_gain=5.79179 5.78788 4.24677 5.21429 4.08056 4.53731 3.94049 3.91618 2.78319 4.57847 2.74257 5.68059 2.475 2.31911 2.10367 1.73513 1.92637 5.19033 15.3503 4.41408 2.97688 2.80105 2.40392 1.45455 3.59402 3.36111 1.43798 1.43793 5.09394 1.42259
threshold=5.5000000000000009 66.850000000000009 19.825000000000003 55.500000000000007 16.500000000000004 5.5950000000000015 2.3900000000000006 11.050000000000002 18.500000000000004 68.500000000000014 -7.9449999999999994 33.500000000000007 2.3900000000000006 14.250000000000002 70.15000000000002 10.050000000000002 27.910000000000004 1.0000000180025095e-35 45.500000000000007 8.6450000000000014 45.500000000000007 3.5000000000000004 58.055000000000007 8.5000000000000018 20.500000000000004 16.500000000000004 68.500000000000014 4.5000000000000009 1.0000000180025095e-35 3.0000000000000004
decision_type=2 2 2 2 2 2 2 2 2 2 2 2 2 2 2 2 2 2 2 2 2 2 2 2 2 2 2 2 2 2
left_child=10 27 3 7 5 -4 -6 12 26 -10 11 23 -3 -8 -7 29 17 18 -17 -19 21 -18 -22 -1 25 -25 -5 28 -2 -12
right_child=1 2 4 8 6 14 13 -9 9 -11 15 -13 -14 -15 -16 16 20 19 -20 -21 22 -23 -24 24 -26 -27 -28 -29 -30 -31
leaf_value=-3.196779185806875 0.2663345350509651 0.27378092880045418 0.1997321345832738 0.014698400920773748 0.23755218868788772 0.20993339807627687 0.022528580622288533 -0.36030999118445317 0.062232115882276645 1.48970675733525 -0.53111444142356246 0.7182295114615429 -0.083645822118317156 0.61798157403161513 -0.32459183002807651 -0.71677961637903453 0.60380102373456035 0.22153916614625332 0.84525277396268794 -0.060050639804454069 0.0080702918106863655 -0.017745490111969048 -0.4591787795425713 0.027230644252935223 -0.42466987252780514 0.32643130863358927 -1.8369550489470854 -0.35690856638132828 -0.02487724701398264 -0.056787311718902347
leaf_weight=48 11.999999999999998 220 37 377 56 192 1568 2245 143 44 401 24 220 896 1011 2655 4860 7076 1593 12722 3266 2852 637 48 78 24 116 2244 120 43684
leaf_count=48 12 220 37 377 56 192 1568 2245 143 44 401 24 220 896 1011 2655 4860 7076 1593 12722 3266 2852 637 48 78 24 116 2244 120 43684
internal_value=-0.000655984 -0.00299021 -0.00156491 -0.00414562 0.000744678 -0.00395162 0.00305555 -0.00612663 0.00367647 0.0140642 -0.000378654 0.0107207 0.0025 0.00245941 -0.00501247 -0.000409553 0.00010908 -0.000401732 -0.00357345 0.000278814 0.00116659 0.0023055 -0.00108378 0.00515151 0.01 0.0261111 -0.000263694 -0.00726431 0.00287879 -0.000829083
internal_weight=89469 9501 7125 3365 3760 1240 2520 2685 680 187 79968 222 440 2464 1203 79746 35661 24046 4248 19798 11615 7712 3903 198 150 72 493 2376 132 44085
internal_count=89469 9501 7125 3365 3760 1240 2520 2685 680 187 79968 222 440 2464 1203 79746 35661 24046 4248 19798 11615 7712 3903 198 150 72 493 2376 132 44085
is_linear=0
shrinkage=0.1


Tree=21
num_leaves=31
num_cat=0
split_feature=7 3 0 10 4 10 2 9 2 3 10 8 10 10 4 5 10 3 9 3 10 5 9 10 4 10 10 10 4 1
split_gain=4.69637 4.1561 4.33418 4.79148 3.81539 3.64083 3.98649 3.90742 2.475 2.40314 8.26139 4.03686 6.83816 2.7698 2.38972 2.38319 3.51964 2.19628 2.02161 1.88836 1.65863 7.33333 1.54286 3.53077 1.52693 1.43798 1.37193 3.74967 1.48463 1.31022
threshold=5.5000000000000009 66.850000000000009 19.825000000000003 55.500000000000007 11.050000000000002 15.500000000000002 2.3900000000000006 45.455000000000005 2.3900000000000006 58.750000000000007 36.500000000000007 11.600000000000003 30.500000000000004 16.500000000000004 14.250000000000002 18.500000000000004 68.500000000000014 70.15000000000002 -6.5399999999999991 60.95000000000001 5.5000000000000009 1.0000000180025095e-35 -33.614999999999988 39.500000000000007 3.4000000000000004 68.500000000000014 33.500000000000007 43.500000000000007 10.65 21.590000000000003
decision_type=2 2 2 2 2 2 2 2 2 2 2 2 2 2 2 2 2 2 2 2 2 2 2 2 2 2 2 2 2 2
left_child=9 20 3 4 8 7 -7 17 -3 10 11 12 29 -13 -8 25 -17 -4 -15 -11 21 -2 -12 -24 -21 -5 -22 28 -28 -1
right_child=1 2 5 15 -6 6 14 -9 -10 19 22 13 -14 18 -16 16 -18 -19 -20 24 26 -23 23 -25 -26 -27 27 -29 -30 -31
leaf_value=0.036248367407939144 0.28292665843324161 0.2464028359204086 0.18894005826864912 0.013228560828696346 -0.32427899206600785 0.20321824396471239 -0.015945473981748039 0.17975892112494662 -0.075281239906485442 -0.46176122118212293 0.76958806862107643 -0.26449235913720204 0.8533982450715496 0.23594216506351665 0.54464028017308908 0.05600890429404895 1.3407360816017251 -0.29890965588464496 -0.29134033374417612 -0.50840309542797169 -0.87562935496985794 -0.046843434007291941 -0.29673320078877002 0.94675617301106019 -0.026966566699339722 -1.6532595440523767 -0.11166046984067633 -0.18652920722148672 0.033369452699308869 0.56906903080399041
leaf_weight=340 14.999999999999998 220 180 377 2245 72 1611 20 220 419 40 416 31 314 912 143 44 965 178 479 924 150 17.000000000000004 12.999999999999998 77570 116 140 957 190 151
leaf_count=340 15 220 180 377 2245 72 1611 20 220 419 40 416 31 314 912 143 44 965 178 479 924 150 17 13 77570 116 140 957 190 151
internal_value=-0.000614629 -0.00271656 -0.00150877 -0.0041159 -0.0060149 0.000824466 0.00290944 -0.00381974 0.0025 -0.000364898 0.0036 0.00195804 0.00896551 -0.00207049 0.00224732 0.00338235 0.0129947 -0.00458516 0.00300813 -0.000440692 -0.00633839 0.00333333 0.0371429 0.02 -0.000404748 -0.000263694 -0.00706016 -0.0049495 0.00424242 0.00608961
internal_weight=89469 9501 7125 3365 2685 3760 2595 1165 440 79968 1500 1430 522 908 2523 680 187 1145 492 78468 2376 165 70 30 78049 493 2211 1287 330 491
internal_count=89469 9501 7125 3365 2685 3760 2595 1165 440 79968 1500 1430 522 908 2523 680 187 1145 492 78468 2376 165 70 30 78049 493 2211 1287 330 491
is_linear=0
shrinkage=0.1


Tree=22
num_leaves=31
num_cat=0
split_feature=7 3 9 10 0 2 10 10 0 4 2 3 10 10 2 10 9 10 3 10 0 4 9 0 4 0 10 10 0 8
split_gain=3.53539 4.03647 3.45013 3.91104 3.06336 2.71456 2.50459 2.50357 5.22754 2.32457 2.5907 2.07382 7.69897 3.56765 3.19421 2.25723 1.90476 2.81667 1.89988 1.74075 4.84848 1.71475 1.54346 1.42857 1.31911 1.3707 7.71617 3.84056 1.21623 1.13254
threshold=5.5000000000000009 66.850000000000009 34.445 19.500000000000004 22.415000000000003 2.3900000000000006 57.500000000000007 68.500000000000014 22.800000000000001 11.750000000000002 2.3900000000000006 58.750000000000007 36.500000000000007 14.500000000000002 2.3900000000000006 24.500000000000004 -33.614999999999988 40.500000000000007 60.95000000000001 4.5000000000000009 52.660000000000004 12.250000000000002 3.5150000000000006 32.350000000000009 3.4000000000000004 16.665000000000003 52.500000000000007 51.500000000000007 19.885000000000002 1.7500000000000002
decision_type=2 2 2 2 2 2 2 2 2 2 2 2 2 2 2 2 2 2 2 2 2 2 2 2 2 2 2 2 2 2
left_child=11 7 3 9 6 -6 -5 19 -9 10 -3 12 13 22 15 -15 -14 -18 29 20 23 -16 -1 -2 -20 26 -26 -27 -11 -13
right_child=1 2 -4 4 5 -7 -8 8 -10 28 -12 18 16 14 21 -17 17 -19 24 -21 -22 -23 -24 -25 25 27 -28 -29 -30 -31
leaf_value=-0.20753709845127305 -0.1910030588288234 0.13911634863473096 0.16178302901245162 -0.18685109762777863 0.36018565956167736 0.31310616017617365 0.01190570474582673 0.16485223695968332 -0.30256478902104683 -0.8738510861836869 -0.12295397807579392 0.4206421947555587 0.69262926175896888 0.35110997672274685 0.070560070786880938 0.27338870195082787 -0.067710989503799321 0.86228372954147836 -0.45756278588517446 -0.35596627175430329 0.21140841570254448 -0.32777479181642166 0.097587970356624934 0.44464444889057386 -0.1721890634950064 0.044928399324983208 0.1295869395955469 -0.1985991023286971 -0.31487851831274605 -0.47335402158503381
leaf_weight=434 84 531 39 1774 20 1981 690 48 84 760 779 26 40 280 126 260 20.000000000000004 9.9999999999999982 479 2112 11.999999999999998 148 182 36 22768 33896 8136 12770 551 393
leaf_count=434 84 531 39 1774 20 1981 690 48 84 760 779 26 40 280 126 260 20 10 479 2112 12 148 182 36 22768 33896 8136 12770 551 393
internal_value=-0.000566567 -0.00239028 -0.0012 -0.00136325 0.000436728 0.00334333 -0.0019237 -0.0059596 0.00742424 -0.00442961 -0.00145038 -0.000349892 0.00333333 0.00174825 0.00609336 0.0105556 0.0357143 0.0166667 -0.000420301 -0.00674688 0.00439394 -0.00270073 -0.00399351 -0.00166667 -0.000384248 -0.000351943 -0.000868498 -9.85967e-06 -0.00740656 -0.00713604
internal_weight=89469 9501 7125 7086 4465 2001 2464 2376 132 2621 1310 79968 1500 1430 814 540 70 30 78468 2244 132 274 616 120 78049 77570 30904 46666 1311 419
internal_count=89469 9501 7125 7086 4465 2001 2464 2376 132 2621 1310 79968 1500 1430 814 540 70 30 78468 2244 132 274 616 120 78049 77570 30904 46666 1311 419
is_linear=0
shrinkage=0.1


Tree=23
num_leaves=31
num_cat=0
split_feature=7 3 9 10 0 10 0 2 10 4 2 3 10 10 10 10 10 10 10 10 5 10 10 10 8 10 10 4 10 2
split_gain=4.32284 4.35169 3.46648 3.27281 2.25731 3.9914 2.23173 2.81163 2.38671 2.14943 2.51779 1.51454 3.07422 3.97338 1.72382 1.5625 1.45455 3.59402 3.36111 1.41696 7.46727 1.54598 3.81664 1.61299 1.20749 3.72208 1.78022 1.19093 1.31201 1.13384
threshold=5.5000000000000009 66.850000000000009 34.445 19.500000000000004 -7.9449999999999994 33.500000000000007 22.415000000000003 2.3900000000000006 57.500000000000007 11.750000000000002 2.3900000000000006 88.750000000000014 49.500000000000007 8.5000000000000018 31.500000000000004 2.5000000000000004 8.5000000000000018 20.500000000000004 16.500000000000004 5.5000000000000009 1.0000000180025095e-35 33.500000000000007 44.500000000000007 67.500000000000014 -7.9449999999999994 26.500000000000004 14.500000000000002 3.0000000000000004 3.5000000000000004 2.3900000000000006
decision_type=2 2 2 2 2 2 2 2 2 2 2 2 2 2 2 2 2 2 2 2 2 2 2 2 2 2 2 2 2 2
left_child=4 19 3 9 5 16 8 -8 -5 10 -3 24 13 15 -15 -13 -1 18 -18 20 -2 -21 -23 -24 25 26 -6 28 -26 -11
right_child=1 2 -4 6 11 -7 7 -9 -10 29 -12 12 -14 14 -16 -17 17 -19 -20 21 -22 22 23 -25 27 -27 -28 -29 -30 -31
leaf_value=-2.8599723941218542 0.26753561332890058 0.12520471377125802 0.14560472611120617 -0.16816598786500078 0.18453439878632352 0.55845323622067367 0.32416709360550944 0.28179554415855607 0.010715134271244065 -0.78646597756531822 -0.11065858026821439 -0.15879486511597662 0.63795055168943271 -0.43695549958932633 0.21930081255106268 0.51175064216015709 0.071710525586489035 -0.44090809945365095 0.23508296359160391 -0.75246979229744193 -0.086623535495620282 0.035730484220755886 -0.26305706921323763 0.043108717769136634 1.3600488153960233 0.62243267970579064 -0.9294991372597381 -0.028945572954887529 -0.46190781225123578 -0.28742846760149632
leaf_weight=48 14.999999999999998 531 39 1774 84 24 20 1981 690 665 779 11.999999999999998 33 138 108 36 48 78 24 924 150 363 759 165 21 30 72 78832 380 646
leaf_count=48 15 531 39 1774 84 24 20 1981 690 665 779 12 33 138 108 36 48 78 24 924 150 363 759 165 21 30 72 78832 380 646
internal_value=-0.000489446 -0.00250605 -0.00127018 -0.00143382 -0.000249852 0.00981982 0.000212764 0.00269365 -0.00180195 -0.00423884 -0.00137405 -0.000277885 0.00651376 0.0032653 -0.00186992 0.0295833 0.00515151 0.01 0.0261111 -0.00621212 0.00272727 -0.00687924 -0.0046387 -0.00805195 -0.000305849 0.00774193 0.00153846 -0.000324741 -0.0057606 -0.00710145
internal_weight=89469 9501 7125 7086 79968 222 4465 2001 2464 2621 1310 79746 327 294 246 48 198 150 72 2376 165 2211 1287 924 79419 186 156 79233 401 1311
internal_count=89469 9501 7125 7086 79968 222 4465 2001 2464 2621 1310 79746 327 294 246 48 198 150 72 2376 165 2211 1287 924 79419 186 156 79233 401 1311
is_linear=0
shrinkage=0.1


Tree=24
num_leaves=31
num_cat=0
split_feature=7 3 9 10 10 8 3 4 2 0 10 10 10 8 10 10 5 10 10 10 2 8 10 10 7 7 3 10 7 2
split_gain=4.12431 4.52643 3.3998 3.03859 2.72051 5.06798 3.35771 2.06963 2.32943 1.8628 2.79957 1.99892 6.075 1.75043 2.10989 1.41696 7.46727 1.54598 3.81664 1.61299 1.38511 1.28402 4.65415 16.8699 14.6563 4.4398 1.42946 5.15321 7.49641 4.6809
threshold=5.5000000000000009 66.850000000000009 45.455000000000005 19.500000000000004 34.500000000000007 35.525000000000006 73.65000000000002 11.750000000000002 2.3900000000000006 -7.9449999999999994 31.500000000000004 20.500000000000004 16.500000000000004 22.080000000000002 34.500000000000007 5.5000000000000009 1.0000000180025095e-35 33.500000000000007 44.500000000000007 67.500000000000014 2.3900000000000006 -3.7849999999999997 58.500000000000007 48.500000000000007 2.5000000000000004 3.5000000000000004 66.600000000000009 25.500000000000004 4.5000000000000009 2.3900000000000006
decision_type=2 2 2 2 2 2 2 2 2 2 2 2 2 2 2 2 2 2 2 2 2 2 2 2 2 2 2 2 2 2
left_child=9 15 3 7 5 -5 -6 8 -3 10 11 12 -1 -12 -15 16 -2 -17 -19 -20 -9 22 23 25 -25 -11 27 29 -29 -23
right_child=1 2 -4 4 6 -7 -8 20 -10 21 13 -13 -14 14 -16 17 -18 18 19 -21 -22 26 -24 24 -26 -27 -28 28 -30 -31
leaf_value=-0.023012210570410325 0.24078205199601055 0.11268424239413194 0.13104425350008528 0.33765059757005889 0.19468602068715057 -1.6953480690574652 -0.17963839013853564 -0.7078193798087864 -0.090669356708299814 -0.23106563699660929 0.5026079125986066 -2.5680186266617846 0.21157466723244342 -0.024363643359118572 0.52159812495554481 -0.67722281306769772 -0.077961181946058222 0.032157435798680294 -0.23675136229191385 0.038797845992222961 -0.25868562084134655 0.1725735409892139 -1.390026894832235 -0.3699643876623519 0.88287969737698624 0.27194292222788163 -0.018907351920378516 0.19840519748104632 -1.0722356161837767 -0.21215345948877193
leaf_weight=96 14.999999999999998 531 20 1033 1824 267 1341 665 798 1440 9.9999999999999982 66 24 12.000000000000002 13.999999999999998 924 150 363 759 165 646 1998 420 120 210 612 71225 799 2324 598
leaf_count=96 15 531 20 1033 1824 267 1341 665 798 1440 10 66 24 12 14 924 150 363 759 165 646 1998 420 120 210 612 71225 799 2324 598
internal_value=-0.000462621 -0.00243238 -0.00117193 -0.00128783 0.000302349 0.00415384 -0.00127962 -0.00397728 -0.00119639 -0.000228594 0.00891892 0.00397849 0.0116667 0.0344444 0.0207692 -0.00621212 0.00272727 -0.00687924 -0.0046387 -0.00805195 -0.00679634 -0.000254059 0.00184868 0.00356003 0.0245455 0.000185183 -0.000330632 -0.00185172 -0.00458854 0.00144068
internal_weight=89469 9501 7125 7105 4465 1300 3165 2640 1329 79968 222 186 120 36 26 2376 165 2211 1287 924 1311 79746 2802 2382 330 2052 76944 5719 3123 2596
internal_count=89469 9501 7125 7105 4465 1300 3165 2640 1329 79968 222 186 120 36 26 2376 165 2211 1287 924 1311 79746 2802 2382 330 2052 76944 5719 3123 2596
is_linear=0
shrinkage=0.1


Tree=25
num_leaves=31
num_cat=0
split_feature=7 3 9 10 3 10 10 0 10 10 8 3 8 4 2 3 10 7 10 8 2 0 10 11 10 11 7 7 8 2
split_gain=4.31605 4.88607 3.44687 2.69695 2.41471 8.91173 3.51878 3.78061 2.41579 2.307 4.69422 2.92153 2.28917 2.09273 2.23656 1.76288 5.41432 7.81533 11.6356 7.61675 3.14478 1.98462 10.5502 24.4772 6.5704 12.2833 4.90283 2.86973 1.47422 1.45186
threshold=5.5000000000000009 66.850000000000009 34.445 19.500000000000004 58.750000000000007 36.500000000000007 18.500000000000004 41.785000000000004 21.500000000000004 34.500000000000007 35.525000000000006 73.65000000000002 11.870000000000003 11.750000000000002 2.3900000000000006 66.600000000000009 26.500000000000004 4.5000000000000009 59.500000000000007 -4.4749999999999988 2.3900000000000006 27.780000000000005 2.5000000000000004 -0.78656609248549292 3.5000000000000004 -0.9159756150367534 4.5000000000000009 1.0000000180025095e-35 33.895000000000003 2.3900000000000006
decision_type=2 2 2 2 2 2 2 2 2 2 2 2 2 2 2 2 2 2 2 2 2 2 2 2 2 2 2 2 2 2
left_child=4 -2 3 13 5 6 12 -8 -9 10 -5 -11 -1 14 -3 16 20 18 -18 -19 -6 24 23 -23 25 -17 -24 -26 -7 -15
right_child=1 2 -4 9 15 28 7 8 -10 11 -12 -13 -14 29 -16 21 17 19 -20 -21 -22 22 26 -25 27 -27 -28 -29 -30 -31
leaf_value=0.076683703950777893 -0.18441603347095248 0.10141581815471881 0.11793982815007667 0.30388553781305294 0.1354734143647395 0.24244505930036575 0.14487412356387994 0.61740104367351645 1.0723157117626636 0.17521741861843554 -1.5258132621517184 -0.1616745511246821 -0.22215924487996264 -0.63703744182790778 -0.090525786570562872 0.76160432262794309 -0.30478769102161074 0.78491350183573771 0.68682532067940194 -1.356222420872506 -0.58787466837324664 0.97818356617987079 -0.038882505792694748 -0.012010794754786858 -0.32640394779594289 -1.1015616676865407 0.48488616082124375 -0.0036877229658426104 0.73348445449693822 -0.23281705875721179
leaf_weight=342 2376 531 39 1033 1846 11.999999999999998 604 14.999999999999998 19 1824 267 1341 450 665 779 198 594 32 234 1961 205 218 19952 454 4209 1953 2613 43999 58 646
leaf_count=342 2376 531 39 1033 1846 12 604 15 19 1824 267 1341 450 665 779 198 594 32 234 1961 205 218 19952 454 4209 1953 2613 43999 58 646
internal_value=-0.000480504 -0.00249553 -0.00118597 -0.00134914 -0.000241099 0.00373333 0.00202797 0.00755486 0.04 0.000145574 0.00369231 -0.00131122 -0.00242424 -0.00389546 -0.0010687 -0.000317074 -0.00215928 -0.00500177 0.00316425 -0.00839438 0.00175036 -0.000195122 0.000569348 0.0129167 -0.000547869 -0.00595537 0.000201637 -0.000306591 0.0385714 -0.00672006
internal_weight=89469 9501 7125 7086 79968 1500 1430 638 34 4465 1300 3165 792 2621 1310 78468 4872 2821 828 1993 2051 73596 23237 672 50359 2151 22565 48208 70 1311
internal_count=89469 9501 7125 7086 79968 1500 1430 638 34 4465 1300 3165 792 2621 1310 78468 4872 2821 828 1993 2051 73596 23237 672 50359 2151 22565 48208 70 1311
is_linear=0
shrinkage=0.1


Tree=26
num_leaves=31
num_cat=0
split_feature=7 9 2 10 0 3 10 8 10 8 4 3 4 3 10 10 10 10 5 3 10 7 10 8 2 3 10 10 10 4
split_gain=4.07415 3.61398 3.3887 5.62534 3.76951 2.21548 8.33033 3.19461 5.44809 2.53888 2.19389 2.89844 2.17623 4.44866 2.01259 1.9266 2.7334 1.68369 1.40166 1.37703 4.6608 6.23359 7.86077 6.44505 3.0928 1.61942 16.7783 11.1162 6.16627 19.0119
threshold=5.5000000000000009 45.455000000000005 2.3900000000000006 58.500000000000007 22.800000000000001 58.750000000000007 35.500000000000007 11.870000000000003 31.500000000000004 22.080000000000002 14.250000000000002 70.450000000000017 11.050000000000002 63.750000000000007 61.500000000000007 16.500000000000004 27.500000000000004 21.500000000000004 16.500000000000004 66.600000000000009 26.500000000000004 4.5000000000000009 59.500000000000007 -4.4749999999999988 2.3900000000000006 74.65000000000002 8.5000000000000018 21.500000000000004 9.5000000000000018 10.050000000000002
decision_type=2 2 2 2 2 2 2 2 2 2 2 2 2 2 2 2 2 2 2 2 2 2 2 2 2 2 2 2 2 2
left_child=5 2 3 12 -5 6 7 8 17 -8 11 14 13 -2 -4 -9 -17 -1 -13 20 24 22 -22 -23 -7 26 -21 -28 29 -27
right_child=1 -3 10 4 -6 19 9 15 -10 -11 -12 18 -14 -15 -16 16 -18 -19 -20 25 21 23 -24 -25 -26 28 27 -29 -30 -31
leaf_value=0.055883095218658835 -0.30556129865749776 0.10614584533506886 0.91584547167245067 0.043774914970441441 -0.12842838572101481 0.12192607292826559 -0.098788315695955517 -0.2028411991879461 0.88035018273968579 0.66013600904724434 0.21662564581214172 -0.17769082085593393 -0.24761670920246412 0.11892051632682908 -1.4602049644681352 0.13488428592506818 -0.13836654504214482 0.38848265686899675 0.029315329077675756 -0.55305944066825397 -0.2743089219194495 0.70642215165216382 0.61814278861146199 -1.2206001787852554 -0.52908720153592204 -0.092403518603798931 0.56144935771904192 0.036119222716874337 -0.10143940024588716 0.72684231106856922
leaf_weight=399 870 20 427 658 294 1846 11.999999999999998 400 23 79 1296 1590 3061 590 77 275 182 130 618 2616 594 32 234 1961 205 4464 4251 15549 44646 2070
leaf_count=399 870 20 427 658 294 1846 12 400 23 79 1296 1590 3061 590 77 275 182 130 618 2616 594 32 234 1961 205 4464 4251 15549 44646 2070
internal_value=-0.000506211 -0.00246395 -0.00255353 -0.00417139 0.00281512 -0.000273612 0.00353333 0.00163946 0.00757246 0.0328571 -0.000344314 -0.00196165 -0.00564256 -0.00246576 0.00488095 -0.00218203 0.00225383 0.00550094 -0.00352355 -0.000346386 -0.00197455 -0.00461184 0.00268116 -0.00764175 0.00165285 -0.000238602 0.000470197 0.00146464 -0.000549045 0.00232017
internal_weight=89469 9501 9481 5473 952 79968 1500 1409 552 91 4008 2712 4521 1460 504 857 457 529 2208 78468 4872 2821 828 1993 2051 73596 22416 19800 51180 6534
internal_count=89469 9501 9481 5473 952 79968 1500 1409 552 91 4008 2712 4521 1460 504 857 457 529 2208 78468 4872 2821 828 1993 2051 73596 22416 19800 51180 6534
is_linear=0
shrinkage=0.1


Tree=27
num_leaves=31
num_cat=0
split_feature=7 9 2 10 0 4 0 4 3 10 3 10 10 0 5 7 10 2 10 8 12 10 10 3 10 10 0 10 12 3
split_gain=3.59413 3.59073 2.90975 5.22095 3.76951 2.51493 3.67914 2.02937 2.70254 1.95928 1.44063 4.87522 2.93512 5.2507 1.59694 1.50306 6.68724 9.98803 18.9277 8.66381 4.80961 11.3203 5.28907 2.33986 15.9319 9.92904 5.59128 1.68363 8.76557 3.89071
threshold=5.5000000000000009 45.455000000000005 2.3900000000000006 58.500000000000007 22.800000000000001 11.050000000000002 22.415000000000003 14.250000000000002 70.450000000000017 61.500000000000007 58.750000000000007 38.500000000000007 19.500000000000004 41.785000000000004 8.5000000000000018 4.5000000000000009 20.500000000000004 2.3900000000000006 43.500000000000007 45.525000000000006 1.0000000180025095e-35 15.500000000000002 15.500000000000002 71.550000000000011 59.500000000000007 10.500000000000002 5.9600000000000009 59.500000000000007 1.0000000180025095e-35 75.350000000000009
decision_type=2 2 2 2 2 2 2 2 2 2 2 2 2 2 2 2 2 2 2 2 2 2 2 2 2 2 2 2 2 2
left_child=10 2 3 5 -5 6 -2 8 9 -4 11 12 14 -14 -1 23 20 19 -19 -18 21 -17 -22 24 25 -12 -26 29 -29 -25
right_child=1 -3 7 4 -6 -7 -8 -9 -10 -11 15 -13 13 -15 -16 16 17 18 -20 -21 22 -23 -24 27 26 -27 -28 28 -30 -31
leaf_value=-0.35087852645530537 0.16202838840020065 0.095531260801561768 0.82426092450520594 0.039397423473397281 -0.11558554714891334 -0.2228550382822177 -0.21414463091814462 0.19496308123092732 -0.11104749785446205 -1.3141844680213219 -0.7689709912877668 0.63287923552010505 0.13489831313256317 0.82178625083051193 0.011552183690982491 0.48090554879927228 -1.068388345656887 -0.54910063560470734 1.1201124740649528 0.83934314981994884 -0.41750203879084186 -0.69904402677314426 0.42983951075638305 -0.070623930148020264 0.98329296935590027 0.12054749693568212 0.42750706370433211 -0.41762345685576713 0.10866379603105081 0.16531026826949469
leaf_weight=228 220 20 427 658 294 3061 1240 1296 2208 77 1620 37 598 29 608 1230 3926 1644 1412 126 1350 410 450 34980 312 7927 1597 5192 4443 11849
leaf_count=228 220 20 427 658 294 3061 1240 1296 2208 77 1620 37 598 29 608 1230 3926 1644 1412 126 1350 410 450 34980 312 7927 1597 5192 4443 11849
internal_value=-0.000488328 -0.00232713 -0.00241641 -0.00391559 0.00281512 -0.00533289 -0.00191781 -0.000369264 -0.00192478 0.00468254 -0.00026986 0.0028 0.00189337 0.00706539 -0.00198565 -0.000328544 -0.00143914 -0.00319077 0.00112565 -0.0064462 0.00218023 0.00609756 -0.00138889 -0.000156068 0.00114699 -0.000520585 0.00948664 -0.000420447 -0.00162429 -0.000172759
internal_weight=89469 9501 9481 5473 952 4521 1460 4008 2712 504 79968 1500 1463 627 836 78468 10548 7108 3056 4052 3440 1640 1800 67920 11456 9547 1909 56464 9635 46829
internal_count=89469 9501 9481 5473 952 4521 1460 4008 2712 504 79968 1500 1463 627 836 78468 10548 7108 3056 4052 3440 1640 1800 67920 11456 9547 1909 56464 9635 46829
is_linear=0
shrinkage=0.1


Tree=28
num_leaves=31
num_cat=0
split_feature=7 9 3 10 4 8 10 0 10 10 3 2 0 10 10 4 7 10 10 10 10 10 0 10 8 8 8 10 10 10
split_gain=1.9021 3.57144 3.10017 2.33515 3.70282 2.38251 1.99208 8.53386 1.89376 2.74486 1.66667 1.52914 1.4784 11.865 22.1213 10.4818 7.15045 6.28369 4.95856 6.10269 2.2887 3.31614 2.28809 1.43114 4.63134 1.96448 1.38491 3.59905 1.55693 6.94286
threshold=5.5000000000000009 34.445 63.750000000000007 19.500000000000004 11.750000000000002 7.8500000000000005 5.5000000000000009 39.925000000000004 34.500000000000007 44.500000000000007 62.70000000000001 2.3900000000000006 -2.8249999999999997 52.500000000000007 63.500000000000007 16.150000000000002 3.5000000000000004 56.500000000000007 8.5000000000000018 17.500000000000004 15.500000000000002 36.500000000000007 -3.7849999999999997 34.500000000000007 35.525000000000006 61.555000000000007 -7.9449999999999994 26.500000000000004 14.500000000000002 9.5000000000000018
decision_type=2 2 2 2 2 2 2 2 2 2 2 2 2 2 2 2 2 2 2 2 2 2 2 2 2 2 2 2 2 2
left_child=12 2 6 4 5 -4 7 -2 -8 -10 -9 -6 13 16 15 17 20 -15 -18 -20 -1 -22 -17 24 -5 -25 27 28 29 -14
right_child=1 -3 3 23 11 -7 8 10 9 -11 -12 -13 26 14 -16 22 18 -19 19 -21 21 -23 -24 25 -26 -27 -28 -29 -30 -31
leaf_value=-0.96346761734501074 -0.089955503106209728 0.085978134721405308 0.14582554956018043 0.29736683647494289 -0.52628652289664879 -0.041631612212822945 -0.54891161163903923 0.22421616749276785 0.094430470314375681 -0.16119186219908968 0.050225204165425121 -0.2238559154244614 -0.33654000572000031 0.49716793759594363 -0.6828610806526122 0.35205771382057166 -0.98201704161696801 1.7781680749250453 0.43164319731510487 0.17569310609127392 0.11443601659556535 -0.34523613301280126 1.853568315053427 -0.064171003671317603 -1.2737883253549076 0.80701120704279539 -0.034720404003198306 0.63659080410300861 -0.93107355520497448 0.24363951304048684
leaf_weight=585 105 39 104 1093 741 1244 783 20.000000000000004 270 756 9.9999999999999982 646 54 96 351 170 192 161 216 616 819 624 92 3241 297 152 75860 30 72 30
leaf_count=585 105 39 104 1093 741 1244 783 20 270 756 10 646 54 96 351 170 192 161 216 616 819 624 92 3241 297 152 75860 30 72 30
internal_value=-0.000400029 -0.00173771 -0.00186219 -0.000941742 -0.0032724 0.000459938 -0.00542181 0.00629629 -0.0062963 -0.00346979 0.0533333 -0.00689979 -0.000241099 0.00165222 0.011954 0.0250674 -0.00128441 0.0394163 0.00552734 0.00887019 -0.00472387 -0.00258489 0.0109924 0.000390966 0.00309352 -0.000716183 -0.000338745 0.00827957 0.00217948 0.0114286
internal_weight=89469 9501 9462 7518 2735 1348 1944 135 1809 1026 30 1387 79968 3922 870 519 3052 257 1024 832 2028 1443 262 4783 1390 3393 76046 186 156 84
internal_count=89469 9501 9462 7518 2735 1348 1944 135 1809 1026 30 1387 79968 3922 870 519 3052 257 1024 832 2028 1443 262 4783 1390 3393 76046 186 156 84
is_linear=0
shrinkage=0.1


Tree=29
num_leaves=31
num_cat=0
split_feature=7 9 10 2 4 5 10 4 3 5 3 10 10 3 10 10 0 9 7 10 10 10 10 5 8 7 10 7 10 5
split_gain=2.37226 3.5285 2.31749 3.80013 3.00181 3.03586 7.05833 2.93343 3.41646 2.37424 3.65529 2.42198 1.77717 1.27444 4.92977 2.98707 4.45248 1.4998 3.3479 4.65218 6.05294 3.53742 22.522 4.17869 1.54944 4.53848 16.2424 2.17063 2.62792 2.0932
threshold=5.5000000000000009 45.455000000000005 58.500000000000007 2.3900000000000006 13.950000000000001 19.500000000000004 68.500000000000014 11.050000000000002 63.750000000000007 8.5000000000000018 72.350000000000009 33.500000000000007 20.500000000000004 58.750000000000007 38.500000000000007 19.500000000000004 41.785000000000004 -27.299999999999997 4.5000000000000009 14.500000000000002 8.5000000000000018 15.500000000000002 20.500000000000004 3.5000000000000004 19.755000000000006 1.0000000180025095e-35 44.500000000000007 1.0000000180025095e-35 47.500000000000007 2.5000000000000004
decision_type=2 2 2 2 2 2 2 2 2 2 2 2 2 2 2 2 2 2 2 2 2 2 2 2 2 2 2 2 2 2
left_child=13 2 3 7 5 -4 -7 8 -2 11 -11 -5 -9 14 15 -1 -17 18 21 20 -20 23 -23 -15 25 26 -19 -26 -29 -27
right_child=1 -3 4 9 -6 6 -8 12 -10 10 -12 -13 -14 17 -16 16 -18 24 19 -21 -22 22 -24 -25 27 29 -28 28 -30 -31
leaf_value=-0.071628133294326643 -0.24301608850490131 0.077380321249264486 -0.15802513584110436 -0.25046084803265317 0.12079089476014933 -1.2753706660905582 1.7687189716264342 -0.47365787060698383 0.10495980901966036 0.48488375140465367 -0.057708601953292596 0.24416168659018656 -0.14567912223305818 -1.0534714724313929 0.57306335236841421 0.12117849120147889 0.74307966614778065 -0.63013285096193439 -0.64565158122974076 -1.0498966448079015 1.1199720962423592 0.96242838128932517 -0.13290327846170627 0.21977610891703067 0.67109117181630751 0.25196730157627967 0.7825274469945307 0.051307008909744246 -0.12411637824111295 -0.033301703020870835
leaf_weight=836 870 20 714 936 826 60 24 1060 590 928 1022 450 2001 870 37 598 29 2244 152 908 114 440 4539 450 3168 1244 1428 20386 9963 32562
leaf_count=836 870 20 714 936 826 60 24 1060 590 928 1022 450 2001 870 37 598 29 2244 152 908 114 440 4539 450 3168 1244 1428 20386 9963 32562
internal_value=-0.000464856 -0.00195874 -0.00204725 -0.00275805 0.00139162 -0.00298246 0.015 -0.0046472 -0.000958906 -0.000197844 0.00205128 -0.0033622 -0.00640641 -0.000287367 0.0026 0.00168831 0.0069059 -0.000342562 -0.00169009 -0.00659285 0.00503759 -0.000776316 0.000443862 -0.00537879 -0.000200721 -0.000642513 -0.00398148 0.000293282 3.32771e-05 -0.000279834
internal_weight=89469 9501 9481 7857 1624 798 84 4521 1460 3336 1950 1386 3061 79968 1500 1463 627 78468 7473 1174 266 6299 4979 1320 70995 37478 3672 33517 30349 33806
internal_count=89469 9501 9481 7857 1624 798 84 4521 1460 3336 1950 1386 3061 79968 1500 1463 627 78468 7473 1174 266 6299 4979 1320 70995 37478 3672 33517 30349 33806
is_linear=0
shrinkage=0.1


Tree=30
num_leaves=31
num_cat=0
split_feature=9 10 10 10 1 7 10 10 10 0 5 0 10 10 4 4 10 7 3 3 10 0 3 1 10 0 8 7 10 10
split_gain=1.35777 4.42138 6.9169 8.62196 17.3619 5.66161 4.66328 4.05233 5.99123 5.63174 4.0093 14.92 7.44946 2.88148 3.93399 2.20531 1.67907 2.85412 2.31841 1.5961 1.8963 1.63333 1.36334 4.61119 4.53203 4.74687 3.72959 3.79279 5.84783 4.59974
threshold=-27.299999999999997 63.500000000000007 45.500000000000007 39.500000000000007 -3.4849999999999994 2.5000000000000004 43.500000000000007 6.5000000000000009 21.500000000000004 38.455000000000005 3.5000000000000004 16.425000000000004 65.500000000000014 68.500000000000014 18.550000000000004 10.550000000000002 68.500000000000014 4.5000000000000009 65.850000000000009 78.15000000000002 53.500000000000007 9.4100000000000019 66.600000000000009 -15.214999999999998 29.500000000000004 1.0000000180025095e-35 -2.1549999999999998 4.5000000000000009 6.5000000000000009 59.500000000000007
decision_type=2 2 2 2 2 2 2 2 2 2 2 2 2 2 2 2 2 2 2 2 2 2 2 2 2 2 2 2 2 2
left_child=1 2 3 7 5 -5 -6 9 -9 -1 11 12 -3 14 -13 -12 17 -17 -18 -4 -21 -22 23 24 -2 -26 -25 29 -29 -28
right_child=22 10 19 4 6 -7 -8 8 -10 -11 15 13 -14 -15 -16 16 18 -19 -20 20 21 -23 -24 26 25 -27 27 28 -30 -31
leaf_value=-1.1749659147203233 0.044612922413562239 -0.058491496104594726 -0.65805179096601507 0.52732529466941969 1.3480476715213896 -0.66995400730085608 0.70024202936088964 0.12665259511533655 -0.33321013704126018 0.21080186604753096 -0.22787339268857354 0.20413055873184335 1.5502450889370607 -0.69648091560844316 0.95953095356537288 0.6225007960017177 0.12016952916397948 0.025907329822296446 -2.2012403423175302 -4.4414983778244421 0.72382397501728668 0.43188101947411578 -0.012992361241786182 0.33170546355199948 0.80050730341877641 0.27905485589230017 -0.072739931351742323 0.091656605768704547 -0.24157702670028708 0.51805731852938131
leaf_weight=948 406 28 2125 150 192 369 89 2282 2604 24 189 200 76 169 30 50 28 165 144 48 20 40 72103 292 52 45 944 552 4897 208
leaf_count=948 406 28 2125 150 192 369 89 2282 2604 24 189 200 76 169 30 50 28 165 144 48 20 40 72103 292 52 45 944 552 4897 208
internal_value=-0.000394441 -0.00149449 -0.0022281 -0.000612799 0.009125 -0.00171484 0.0291459 -0.00194264 -0.000769548 -0.00783951 0.00455051 0.0110736 0.0448077 0.0022807 0.00956522 -0.00114584 0.00317829 0.00906977 -0.00418605 -0.00704434 0.00481481 0.0166667 -0.000256484 -0.00154949 0.00769383 0.0271134 -0.002224 -0.00271323 -0.00381538 0.0025
internal_weight=89469 9970 8891 6658 800 519 281 5858 4886 972 1079 503 104 399 230 576 387 215 172 2233 108 60 79499 7396 503 97 6893 6601 5449 1152
internal_count=89469 9970 8891 6658 800 519 281 5858 4886 972 1079 503 104 399 230 576 387 215 172 2233 108 60 79499 7396 503 97 6893 6601 5449 1152
is_linear=0
shrinkage=0.1


Tree=31
num_leaves=31
num_cat=0
split_feature=9 10 0 10 10 10 1 7 10 10 10 10 4 5 5 3 3 8 10 4 8 10 0 3 10 10 0 10 12 10
split_gain=1.58693 3.20103 3.68224 3.44258 7.18192 6.6994 15.7655 5.39837 4.22659 7.04734 4.15189 3.27859 4.63468 3.22519 1.4281 1.33254 1.18415 4.03166 3.38683 5.21706 4.6573 3.28696 4.74151 1.87236 10.8041 7.04586 4.3789 2.55903 13.9053 4.15782
threshold=-27.299999999999997 6.5000000000000009 38.455000000000005 45.500000000000007 63.500000000000007 39.500000000000007 -3.4849999999999994 2.5000000000000004 21.500000000000004 16.500000000000004 43.500000000000007 68.500000000000014 15.250000000000002 3.5000000000000004 1.5000000000000002 50.800000000000004 66.600000000000009 -2.1549999999999998 24.500000000000004 23.750000000000004 26.055000000000003 23.500000000000004 29.73 71.15000000000002 59.500000000000007 10.500000000000002 5.9600000000000009 60.500000000000007 0.25881904510252057 46.500000000000007
decision_type=2 2 2 2 2 2 2 2 2 2 2 2 2 2 2 2 2 2 2 2 2 2 2 2 2 2 2 2 2 2
left_child=1 2 -1 5 -5 8 7 -7 9 -3 -8 12 -6 -10 -13 -2 17 21 20 -20 -19 -17 -23 24 25 -18 -26 29 -29 -25
right_child=15 3 -4 4 11 6 10 -9 13 -11 -12 14 -14 -15 -16 16 23 18 19 -21 -22 22 -24 27 26 -27 -28 28 -30 -31
leaf_value=-1.057469323248291 0.89031315482252849 -0.02458242610796596 0.18972167944277774 -0.56365803207234677 0.041717495229264406 0.47459276520247784 1.2132429043692508 -0.60295860657077049 -0.81791890619025942 0.47545405814215846 0.63021782642480062 0.63005280497106564 0.57263100853849491 -0.051442346747790073 -0.43207626550686912 0.042089742158228118 -0.63294785017154398 0.064923239192651888 -0.22041771564038856 0.76153050117333043 -0.22258246835507897 0.33682156738320873 0.82870788765858561 -0.051338906019372035 0.92098385585341347 0.075764765403130249 0.42772075915309138 -0.52983408581430547 0.22777306633720995 0.13333547028147802
leaf_weight=948 24 1557 24 2233 360 150 192 369 1170 725 89 79 260 1434 380 345 1730 1992 4033 96 768 114 24 39590 245 8361 1793 5962 3209 11213
leaf_count=948 24 1557 24 2233 360 150 192 369 1170 725 89 79 260 1434 380 345 1730 1992 4033 96 768 114 24 39590 245 8361 1793 5962 3209 11213
internal_value=-0.00037544 -0.0015647 -0.00701646 -0.000975775 -0.00353865 0.000517057 0.009 -0.00132948 -0.000871881 0.00226994 0.0280783 0.00316033 0.00790322 -0.00362519 -0.00324619 -0.000226295 -0.000233409 -0.00144059 -0.00205981 -0.00387261 0.000652172 0.0073913 0.0204348 -0.000109984 0.00102317 -0.000318108 0.00766437 -0.000339149 -0.00187657 -6.16129e-05
internal_weight=89469 9970 972 8998 3312 5686 800 519 4886 2282 281 1079 620 2604 459 79499 79475 7372 6889 4129 2760 483 138 72103 12129 10091 2038 59974 9171 50803
internal_count=89469 9970 972 8998 3312 5686 800 519 4886 2282 281 1079 620 2604 459 79499 79475 7372 6889 4129 2760 483 138 72103 12129 10091 2038 59974 9171 50803
is_linear=0
shrinkage=0.1


Tree=32
num_leaves=31
num_cat=0
split_feature=9 10 10 10 8 7 10 1 0 7 10 10 2 0 4 0 2 0 2 8 7 10 10 11 8 10 3 10 10 9
split_gain=1.48196 3.29595 2.89408 6.36438 12.8828 6.16969 4.95259 3.37352 8.10946 2.95807 2.83281 5.08898 2.60233 2.40716 2.34668 1.87545 1.81589 1.44231 1.14286 0.93656 4.46222 15.0424 3.36487 18.2794 9.53146 5.87883 11.8759 6.58724 2.9344 2.58636
threshold=-27.299999999999997 6.5000000000000009 45.500000000000007 39.500000000000007 50.585000000000008 3.5000000000000004 63.500000000000007 -17.514999999999997 16.425000000000004 2.5000000000000004 21.500000000000004 16.500000000000004 2.3900000000000006 26.445000000000004 12.450000000000001 15.470000000000002 2.3900000000000006 -2.1549999999999998 2.3900000000000006 19.560000000000002 1.0000000180025095e-35 44.500000000000007 6.5000000000000009 -0.60355339059327362 -3.5349999999999997 20.500000000000004 70.15000000000002 30.500000000000004 68.500000000000014 21.580000000000002
decision_type=2 2 2 2 2 2 2 2 2 2 2 2 2 2 2 2 2 2 2 2 2 2 2 2 2 2 2 2 2 2
left_child=1 13 3 10 9 -6 15 17 -9 -5 11 -3 -12 -1 -15 16 -4 -8 -16 20 21 -2 23 24 -22 26 -24 -27 -23 -25
right_child=19 2 6 4 5 -7 7 8 -10 -11 12 -13 -14 14 18 -17 -18 -19 -20 -21 22 28 25 29 -26 27 -28 -29 -30 -31
leaf_value=-1.0581995772967021 -0.5664728726153323 -0.022124183497169367 -0.25873871006994092 0.42241246803600369 1.0919186139323256 0.24781106929775776 0.12668115092043869 0.61029720700849277 -0.018065843074866451 -0.71360688848800258 -0.06884329721138277 0.42790865232794256 -0.77669699316400431 0.22146387869095069 0.15634946839240699 -1.1639014051216365 0.35309133855408853 -0.27725773809278903 -0.58489376474517663 0.013097722363664133 -0.29676142856009829 0.72047616325890296 0.18723030249214148 -0.76735754904556353 0.40706497130006875 0.1553962552716438 -0.33432863453181999 -0.053783232230995015 -0.60830591958847047 0.1339848793620991
leaf_weight=834 2200 1557 1098 120 240 115 108 230 498 325 1632 725 972 54 11.999999999999998 1063 72 243 72 39103 348 1200 1694 1452 1394 5396 6002 20260 200 250
leaf_count=834 2200 1557 1098 120 240 115 108 230 498 325 1632 725 972 54 12 1063 72 243 72 39103 348 1200 1694 1452 1394 5396 6002 20260 200 250
internal_value=-0.000335202 -0.00148446 -0.000886866 0.000481883 0.00875 0.0229577 -0.00323672 0.00232623 0.00620879 -0.00258427 -0.000871881 0.00170026 -0.00312596 -0.00701646 0.00521739 -0.00592477 -0.0031624 -0.0057265 -0.0052381 -0.000191074 -0.000528768 -0.00388889 -0.000200024 0.00277584 0.00997704 -0.000507318 -0.0029314 0.000219829 0.00421428 -0.0045946
internal_weight=89469 9970 8998 5686 800 355 3312 1079 728 445 4886 2282 2604 972 138 2233 1170 351 84 79499 40396 3600 36796 3444 1742 33352 7696 25656 1400 1702
internal_count=89469 9970 8998 5686 800 355 3312 1079 728 445 4886 2282 2604 972 138 2233 1170 351 84 79499 40396 3600 36796 3444 1742 33352 7696 25656 1400 1702
is_linear=0
shrinkage=0.1


Tree=33
num_leaves=31
num_cat=0
split_feature=7 0 10 10 10 0 10 3 9 8 8 10 8 4 1 10 10 8 3 10 10 10 10 0 0 10 11 11 0 10
split_gain=1.62438 6.12935 5.0527 22.4068 7.39251 10.0214 7.18497 4.28675 3.31988 5.02911 2.77898 4.21526 2.63186 1.79024 3.48365 3.55568 4.44311 2.25559 1.60046 9.46005 8.98451 14.6897 8.68029 6.98041 5.26157 3.17111 15.4751 5.9705 2.98457 2.66778
threshold=4.5000000000000009 41.785000000000004 42.500000000000007 50.500000000000007 67.500000000000014 57.710000000000008 3.5000000000000004 70.050000000000011 20.285000000000007 1.7500000000000002 1.7500000000000002 22.500000000000004 43.20000000000001 12.050000000000002 -4.129999999999999 3.5000000000000004 13.500000000000002 45.100000000000009 71.850000000000009 60.500000000000007 48.500000000000007 35.500000000000007 24.500000000000004 40.420000000000009 26.445000000000004 68.500000000000014 0.12940952255126045 0.12940952255126045 4.4650000000000007 57.500000000000007
decision_type=2 2 2 2 2 2 2 2 2 2 2 2 2 2 2 2 2 2 2 2 2 2 2 2 2 2 2 2 2 2
left_child=18 13 6 7 -5 -6 8 -4 -3 -10 11 -8 -9 14 15 -2 -17 -16 19 20 21 22 -1 -23 25 27 -27 -21 29 -22
right_child=1 2 3 4 5 -7 10 12 9 -11 -12 -13 -14 -15 17 16 -18 -19 -20 24 28 23 -24 -25 -26 26 -28 -29 -30 -31
leaf_value=0.14196920140759134 -0.50918028334689602 -0.16652654512845971 0.35286825947911149 -0.94458468884904401 0.16925286556610497 2.5182671681162971 0.18957379957492004 2.7990010409043751 0.0078689109719071847 0.77792844564906893 -0.35057728906544755 0.63317844010212099 0.59362891318422573 -0.12543696778967584 -0.035605911070028286 0.17597962989414953 0.054379623696559465 -0.4707756846483081 -0.036164644945973136 -0.59381056095948548 -0.48141835785811793 0.44111251057881057 -0.66780042508049753 0.74360168604782206 -0.016259258767379946 0.84447272977231069 -0.55384905987810906 0.69999791017527602 -0.91024659275131059 0.81813265862117468
leaf_weight=4152 159 30 48 408 95 25 116 138 36 66 1110 18 15.999999999999998 12305 5410 402 609 558 55672 144 225 1989 1903 260 600 70 306 760 1764 75
leaf_count=4152 159 30 48 408 95 25 116 138 36 66 1110 18 16 12305 5410 402 609 558 55672 144 225 1989 1903 260 600 70 306 760 1764 75
internal_value=-0.000407853 -0.00116433 0.00396011 0.0106849 -0.000151518 0.0216667 0.000392439 0.0390099 0.0225758 0.0311765 -0.00196142 0.0116418 0.0471429 -0.00171939 -0.000459515 0.00452991 0.00671612 -0.00143767 -0.000167847 0.000867078 -0.00031636 0.00115125 -0.00141206 0.00805247 0.00739361 0.0110156 0.00329787 0.0142257 -0.00622093 0.003
internal_weight=89469 21549 2106 730 528 120 1376 202 132 102 1244 134 154 19443 7138 1170 1011 5968 67920 12248 10368 8304 6055 2249 1880 1280 376 904 2064 300
internal_count=89469 21549 2106 730 528 120 1376 202 132 102 1244 134 154 19443 7138 1170 1011 5968 67920 12248 10368 8304 6055 2249 1880 1280 376 904 2064 300
is_linear=0
shrinkage=0.1


Tree=34
num_leaves=31
num_cat=0
split_feature=9 10 10 10 7 0 1 10 0 0 0 1 10 10 3 4 2 7 7 3 8 10 11 1 7 10 10 10 3 10
